import type { SerializedWeights } from "./neuralNetwork";

/**
 * Pre-trained DQN weights for the Hard difficulty RL agent.
 * Generated by scripts/train.ts — do not edit manually.
 *
 * Network: [138, 64, 58]
 * Training: 20,000 games vs heuristic/random mix
 * RL vs Random: 294/300 (98.0%)
 * RL vs Heuristic: 204/300 (68.0%)
 */
export const TRAINED_WEIGHTS: SerializedWeights = {"layers":[{"weights":[[-0.11561551279239286,-0.11151858265212726,-0.06872572042132909,-0.25471489440755396,-0.07841931091875333,-0.3892367189963045,-0.12010500926241496,0.0821346837749705,0.008502185975717879,-0.022764557135381003,-0.1185915870434868,0.06233856537198784,-0.1223655147237175,-0.06605179011726366,-0.04480630980305104,-0.04629567113782452,-0.19284603343521126,-0.09373857569165771,-0.16743198835382764,-0.37820266248940243,-0.05947476177019332,-0.13884521334618527,-0.36302556758393806,-0.11377492135543958,-0.1160056629791853,-0.05675688805916383,-0.07388051574162798,0.026217543000756818,-0.1579117294437591,0.06631124083678014,-0.13704412095492383,-0.16596317837175956,-0.0340344091098651,-0.11514531914062666,-0.16201686237558133,-0.14785924524703278,-0.20348022947214114,0.07799898332486471,-0.31009951508939204,-0.03423648275112752,-0.21518489375494426,-0.13522859761918465,0.009055432428038721,0.03422152130411504,0.20246440014908773,-0.14767047185527118,0.7053134628127352,0.12492479405078735,-0.058622711202555404,0.030198475992119195,-0.19315693766865547,0.012216144992372412,-0.08642844142227507,0.8096267253013354,-0.10385654837800352,-0.01494665765658683,0.03626739881803396,0.000545364630240946,0.0019543831330341424,0.07820169042716654,0.4640087731525493,0.13097352493883643,-0.13298797917925287,-0.2772493192316394],[0.03718727590100876,-0.08971669132066022,0.04616200340761704,-0.4825845105748071,-0.010742249055905777,-0.046731432558147976,-0.19224788663420406,0.957142770624832,-0.13800652841198244,0.0594635353964983,0.052177194947597504,0.04560857728641751,-0.08500132205775583,-0.03264594622863046,0.02783087870115217,0.0007341552082970426,-0.021395700603195622,0.033104675768713274,-0.08357566073355323,-0.5276156042206316,-0.07348453894662421,-0.13741727616248078,-0.10457630478121843,-0.036321903589469635,-0.03263323445953009,-0.11942144798550232,-0.1853325662566233,-0.07624081570932371,0.01926508059820662,-0.10325786197490816,-0.20090127401660385,0.024419379845004918,-0.13488113512465635,-0.12676985100899404,-0.001010434723068357,0.06871139598879758,-0.0017913127776454994,-0.09040296729869214,-0.013698731207280584,0.00016129447914975511,-0.057971125140884865,-0.07729702595601735,0.03427247304342268,-0.06829345605014839,0.5737994858234732,-0.20721870376356252,1.1858393700056002,0.07793377230884845,-0.007567241263433094,-0.21533739615877032,-0.1361718561753358,-0.006434058653412707,-0.10926208854684329,1.3633881552453313,-0.08503604650779978,-0.07013523494827209,-0.03429159712499505,-0.12311248554900289,-0.15610398284049298,-0.0244808862353947,0.1571409204460513,-0.16724594805702572,-0.05209623727503746,0.08685697320992644],[0.0448865120512486,-0.12388902054011419,0.0534697052604418,-0.0018390379112842021,-0.10314963909599613,0.07536337321298762,-0.20803218076681418,0.22658352530764644,-0.12661416587183993,-0.004596678578876479,-0.05450379965733641,0.006382446979230182,-0.15964917691293362,-0.14171447699188555,-0.110168255352557,-0.05102873877753155,0.05589596708125494,-0.14475846034365006,-0.14907087981356953,0.21851396259551992,-0.06613551413169547,-0.10827082753293517,-0.16331216120052144,-0.055173823586124826,0.004050371042147223,0.03927163786046933,-0.08317270860335833,-0.12731346208906744,-0.11880936188920735,0.08938066204098351,-0.12376113841567002,-0.05770589872552994,-0.010610862247677079,-0.07056073930041144,0.05920387204159001,-0.05588848889155656,-0.14507214544866975,0.053774713095651044,0.023519496470708827,-0.3625176337894668,-0.20905214365082234,-0.18327152908123054,-0.09682230441105799,0.015526814253963038,-0.03865681437668735,0.06302113965294377,0.8860562379355447,-0.05316522720907271,-0.17461380180234193,-0.007120705104021007,-0.019486987303970804,-0.009553520287994636,-0.011923344729333233,1.0383721437848041,-0.17773344640713104,-0.014180824363697208,0.059928937043787614,-0.041359042287489794,-0.20179351172165808,0.01049084379663342,0.044813115497400885,-0.09415012158581246,-0.1449699178966449,0.12481159501067465],[-0.03894530332563534,0.04892286717673303,-0.06955943950670997,-0.46159746023077514,0.04679536883987131,0.23652943481824962,-0.1063348842756762,0.12134156547627652,-0.18533760616636563,-0.16641854006408374,-0.053310846167809726,0.07308802888496806,-0.08992155878780933,0.028481749950037542,-0.12257984363527459,-0.015753495033928238,-0.038766234330884074,-0.08082510581699336,-0.06444834970850637,-0.16018113092844274,0.059466781790245456,0.1061773672424627,0.6808492874365947,-0.0034518910486720745,-0.1059984934383253,-0.01880950121991263,-0.055131296229018543,-0.012318789847994206,-0.062003511018665546,0.021526328245368466,-0.05112140231323328,-0.15455624920926406,-0.018271797487206823,0.05532557407350789,-0.1992922478290447,0.0001962795554350071,-0.133652100094081,-0.19269655056539822,-0.05555711692915155,-0.10294522643643336,-0.705017040469027,-0.08409710956370323,0.04628783039223077,0.0993108770427761,-0.4559066978133343,-0.11596770076689135,0.7374672729811413,-0.07454256481948514,-0.023198528793266015,-0.06704187880355446,0.03779164464749184,0.0746491803016944,-0.07688611532943129,1.000305079692872,0.06995316425261429,-0.13731807787270026,-0.13345264506654622,-0.0551153840444729,-0.2779874018131776,0.016251756800768406,0.5424674255408243,-0.03835555084585909,-0.015333902939086671,-0.08251837720688428],[-0.08647445125212866,-0.13307301634260846,0.06325896792499291,-0.3133809636922494,0.05142979839296372,0.10676582122552042,-0.07641163673539435,0.5796763831402846,-0.012415195961112535,-0.0697331994938452,-0.10724678990271339,-0.24235452155660772,-0.1378213562052283,0.03589437146206457,0.009410652032790512,-0.023818958191282654,0.07253391954590412,-0.010744867242866678,-0.13698496807674979,-0.1328884375985961,0.10632522113469098,-0.13766628967737804,0.21552970859900009,-0.08852868803122972,0.11129434654011054,0.05401604671956631,0.15866382989900446,-0.13902391193001742,-0.17586654302777965,0.04529231642871672,0.0837730034769575,0.025497115198178526,-0.049025076966013596,-0.058705183162363665,0.007797183886126549,-0.003106216217084146,0.012163939072402367,0.1494496511331239,-0.09665882192944882,-0.17949443348018773,-0.39409557017760777,0.013025591036674297,-0.027687017901621376,-0.27641932261686586,0.15976358694457135,-0.06186837566191362,0.6838112731143716,-0.1752278382803516,-0.16746840239324343,-0.1531445596330734,0.05266994349164846,0.06614686707486418,-0.07486222715030391,0.9322202533604133,-0.028047972524139302,0.029164684434562497,-0.0757598162720326,-0.14657536582174915,-0.02245217393203902,-0.04426731761378256,0.7573641121192984,-0.20914399018968322,-0.15900135768283066,-0.08603590179718175],[-0.0073867026019795575,-0.017755831383571622,-0.1182361156623565,-0.16965222681068373,-0.13741296421623475,-0.38256104202514885,-0.0575694684300174,0.9812447455542036,0.03441303865151046,0.02461484713054954,-0.17172597713057655,-0.06086650564930642,-0.1371370151146182,-0.0649065375623375,-0.03918463851261087,-0.11075957152031105,0.11408826866145935,-0.18911913261924418,-0.10873418177147944,-0.5231452677559418,0.06200483612213357,-0.03711201368717187,-0.19412734405760024,-0.07322782604440922,-0.15946753728404559,-0.030550703770769273,-0.344389052831968,0.05021850942741276,0.09080176557407013,0.087286407039235,-0.14857923940381906,-0.055784466701268756,0.05575762102757222,0.009316231800798276,0.013573397067078502,-0.049750522393086215,-0.00713695723610729,-0.4565251051993397,-0.1027445690740507,0.2517641636589126,0.9769205510829193,0.10203748770353477,0.02335873125640477,-0.03020979503374191,-1.719905284671256,-0.09460290275235625,1.3839454901584447,-0.034448736350671035,-0.04589009688679503,0.19694056379254332,0.017188663711397593,-0.0770399376512745,-0.03861565621611127,1.1190336522471105,-0.08174944719441318,-0.09204926765301394,-0.09533853568873922,0.09321472412914135,0.07967009893506093,-0.04944743932791638,1.0400386967075939,-0.25810591831206686,-0.07200170815679649,-0.5749719602833102],[0.06187678272291711,-0.12397657590965849,0.07173450868505982,-0.13185027867642124,-0.15207580348882435,-0.07264507563162269,-0.16381873460104687,0.20566199612908936,-0.000029415959763940813,-0.058790358944090064,-0.12682795036726952,-0.3436393464875705,-0.08323209112148315,0.0550411840174521,0.10081673066791573,0.021953559208873024,-0.095492469682368,-0.05186551776969979,0.046326229579825684,0.2384444821279926,-0.011545842057930602,-0.017057015434775002,0.2976350968807522,0.03813164571515142,0.1937735394701507,-0.023636285485362372,0.015395599257709924,-0.1705629751944798,-0.034876926838130956,-0.12235734883423803,-0.16579940146423283,0.03300163185683628,-0.08503978360160462,0.07242559551779112,-0.12511043473328545,-0.05570308169551393,-0.05125213270807151,-0.10061092324003572,-0.24734596327004058,-0.12357711977907022,-0.6702084802811391,-0.009358377344058921,-0.015928314726623993,-0.14038146415818903,-0.6534145259249349,0.048106679687368176,0.6375033189572755,-0.13461555012276408,-0.11032097038054993,0.008736435225299176,-0.06803708723269489,-0.1055737306566909,0.03352566448161802,0.9502160956305147,-0.07739019525686072,-0.11349979964764743,0.03206811315466661,-0.048683080947614005,-0.1606492259570161,0.06548350990205228,0.08208162645249599,-0.058960113393617126,-0.231588562757748,-0.061428545962992416],[0.0531598575337809,0.007251036163115689,-0.01753066721145323,0.18150560556001144,0.05239862855889879,-0.2146081587363363,0.06889052914933654,-0.37533229281964564,-0.0554523244997659,-0.0016764354161421255,-0.033733837127786936,-0.026252873534546372,-0.08440187099220403,-0.04084614008112116,-0.12845332456762704,-0.06315320543956515,-0.20828234668700824,0.08174086212443979,-0.0247859329496914,0.14985290092505102,0.10477473658116992,0.019713537000437605,-0.4304917072902114,-0.15885518413451716,0.19399514061882697,-0.03358015067814423,0.09549073334880762,-0.16760808132067284,-0.005558898521710545,-0.10851491667431923,-0.19694003958751907,0.05741253835093655,0.015176489705618131,0.06398310263805783,-0.15285933929986395,-0.1891992093214173,-0.09546190420761601,-0.10591219768076696,0.05297825863144755,-0.046526642600500635,0.11056295735259843,-0.0568170207346225,0.02374211361743719,0.07378164576190557,0.24944770747656805,0.06771625986037745,0.712410341216092,0.012825141548468384,-0.05739969887666622,-0.21701299128652254,0.03746737690327371,-0.03616568392898832,0.06457843841407554,0.8863902155392768,-0.17924224337214498,-0.08058781345783136,-0.009092224419091742,0.037019758513001474,-0.21894458849771106,-0.05677843212637692,-0.014616101388264822,0.147391047621152,-0.1271634185499653,0.14784389300578962],[0.0065719782911103425,0.001968974676014805,0.04629348808115276,0.0006683361156179626,-0.1414798343947308,0.18545738945888687,-0.12316725571776542,-0.15796213055753638,-0.012864595412473258,0.0665960397059818,-0.05946849766413277,-0.2491929010486688,-0.08118994108200568,-0.07718963114542302,0.025251968093468916,-0.14783298965341404,-0.11098271977670011,0.0418012358038931,-0.04510712972801398,-0.02867949231154856,-0.06535891213678689,-0.24702763398255603,0.021179931780092236,-0.08078997204409345,0.28022033353997156,-0.1635369926010223,0.05974847678017744,0.03462334200744492,-0.16340414821675986,0.10687345399418269,-0.09458250737250455,-0.13165096692717881,-0.078302794756686,-0.04664908950173052,-0.18753840933288765,-0.10450185813190128,-0.06343540384398613,0.13779423197886556,-0.14585662428087415,0.08833876185496273,-0.32162038407044746,-0.12095198144190111,0.08643465277082188,0.19246781836713453,-0.19614127412468427,-0.14993414819997355,0.7284657372222207,-0.07818983560323393,-0.02904298612705694,-0.0735997543906387,-0.06436064456660723,-0.15368072582862108,-0.002224629242769589,0.9355679439902549,-0.07034748017728576,-0.03927936594138982,0.047838018811345,-0.00720406149877054,-0.0578815653279874,-0.13136322188252825,0.5035916585374813,-0.15124273922485734,-0.1309500414325189,0.02327684424396829],[-0.05296914117478107,-0.08233978754325913,0.021822172076272812,0.13618249014879763,0.08508416598593675,0.19899580348313564,0.026347112281272313,0.5228961871721748,-0.03731102046220795,-0.010586527036386593,0.06399170649330695,-0.10158959079485771,-0.13436647715998473,-0.02576072214811987,0.06028229858335718,-0.021293748689470503,-0.18127718995908415,-0.16522419899558988,-0.11069952243036271,0.32576156819044505,0.09066287900251085,0.04026010923573938,0.6223086106232879,0.031107822622914918,0.18157585492946657,-0.08411287524097204,0.0957053732721418,-0.09684238876280565,-0.08427836980822138,0.04538018086789567,-0.10578448200206168,-0.05145968851646043,0.05601860585908951,0.06538593661434881,0.052687707289477886,-0.08128473814270493,-0.0069472665657434665,0.03799485173614092,-0.10017003643278465,0.01123770820715219,-0.5049001418539262,-0.12322648763219456,-0.0007282070779998713,-0.08678845422923123,-0.7433689796605348,-0.12731154631868535,0.5730203169946193,-0.14406048325711268,0.07874349299872059,-0.13663026044565138,-0.10907199864935407,0.050674660380486194,-0.087347249292176,1.0494655286950745,-0.1595618680661129,0.032439436803392195,-0.11397058332199471,-0.026857402234792164,-0.18335183374605352,-0.13650644900145584,0.16214459024442304,-0.03374995262358535,-0.07145986119437091,0.1745215920563167],[0.040904058762534286,0.03544226960928325,-0.15302795851598958,0.18338469631794846,-0.07898349662881818,-0.03610159184157787,0.08312453091762148,-0.09985568995449796,-0.11435845542722682,-0.1484223746725834,0.09199492284503749,-0.09406825575111846,-0.059000822926516136,0.05004984770603014,-0.025355044707445637,-0.03516090392572351,-0.02147053347139242,-0.08745104439101246,-0.13897930069495015,-0.07083432010944829,-0.0945627932262045,-0.0028081834249874776,0.04881893888689553,-0.07383991886977746,-0.014577155950382283,-0.07139594962340969,-0.024344825094528757,0.027570283284151228,-0.03091662012607303,0.07594335672323095,-0.05700182141103047,-0.08744651437674736,-0.08101670286188234,-0.0241932255494774,-0.09644443288618354,0.030073163914071895,-0.0800837852002282,0.15867942650044925,-0.16594077097977838,-0.2010691585420694,-0.5384087453461803,-0.07936058643587589,0.03559299010802687,-0.14226187570584242,0.2978077865674948,0.0431398914164816,0.5369441221455975,-0.012887050082753435,-0.04908489376494247,-0.2526313053388112,-0.04400583603020386,-0.1169754327883981,0.007129558873925852,0.8650161726988064,-0.16271541000364423,0.0039102270204647615,-0.02508455798011686,-0.12186089181566793,-0.09547628491635693,-0.10136013805636411,0.31289459122115626,-0.10674210610895414,-0.13279841380407426,-0.1084607064289541],[-0.09784602596080322,0.05978304266690716,-0.044223788549372325,0.17477582737839953,-0.10285596121564641,-0.2313491525905339,0.0883771803554675,-1.2543286266674305,-0.24746115952956158,0.02744285304960623,0.04847358142217076,-0.13639060308668594,-0.031512673541183644,0.060640506972922746,0.06546321321285749,0.07046690671027671,-0.10323362912636222,-0.05469654479224053,0.00042744363862231736,0.4224381786051111,-0.014592778243828817,-0.11924670281443812,-0.29401354452880196,-0.03658576209097254,-0.18520312970959107,-0.12076482834707988,0.06623224243981454,-0.08970127491380073,0.01730846549390467,-0.05102011526377961,-0.044672057093193794,-0.0017900573122748558,-0.08297326648592966,0.04147864501147201,-0.12891311815161216,-0.03993063189168093,-0.02508853416303912,0.047858818566470986,-0.04061457119440004,0.019650246807639177,-0.41578074051749464,0.07422542079158152,-0.05262741041205138,-0.03223217649926688,-0.6583215900150265,0.08415332808557639,-0.5129891993687387,-0.07954890626911906,-0.1302373018310863,-0.16451972039646115,-0.08401551242537382,0.08564643277727908,0.03789513841627333,-0.5871415489106593,-0.15591563436483458,0.03660266008648504,-0.043025038780958806,-0.09344261818735532,-0.04055784932644441,-0.17955929993133435,-0.730431527726786,0.043840706077565905,-0.3303271968922746,0.22972578626551954],[-0.013290047542609857,-0.017909530336629124,-0.11852306991097927,-0.28617191813297715,-0.04927288135242711,-0.009265579533558685,-0.1415355388324975,-0.6075505021709056,-0.20918160215275583,-0.1369351368254276,-0.14376027716586573,-0.1569048786969982,-0.1002682024867739,0.025873008819664214,0.048067510058687944,0.026634592936706537,-0.1453765418915854,-0.11814673102409774,-0.017633200727321316,-0.1711878643732544,-0.0038821943215408303,-0.05094484371915905,-0.44023424062974104,-0.020576864104182066,0.0909163015288108,-0.015049898179265575,-0.019186355777825653,0.036220454290244015,-0.12743104194002416,-0.045284273500909085,0.03225799105571829,-0.08742069949793842,-0.16047321838508474,-0.0017653550564853022,-0.02668368081815425,0.040713110653281336,0.017012161248431985,-0.12078223582140746,-0.088140350744417,-0.12068807153521252,-0.09936259871529078,0.010577082737341169,0.013813738396675474,-0.09016055933161651,-3.208915874955689,-0.1081674156013103,-1.1444765255055984,-0.026142293258378052,-0.07404564055799445,-0.16831878181582105,-0.026426658076023322,-0.04375013607752473,-0.0781093340186183,-0.9884690379204636,-0.028983504411942442,-0.12105888075878352,-0.08866269134637814,0.01977935350538611,-0.15255075753953554,-0.009071509346334628,-0.7315812707942472,-0.019962441027162842,0.058608149740977465,-0.10336146733885647],[0.034947885536053394,-0.006999691859581664,-0.08932198868262117,-0.2568053064934409,0.045815628189842326,-0.16768053554420917,-0.3041742170376958,-0.49411657878570003,0.03681888611775645,-0.14049968449585704,-0.15909794223458745,-0.1503213575466928,-0.05358122464982609,-0.05442764023143683,-0.12167943911634611,0.0036159286245279576,0.03939985281884912,-0.18433920309897966,-0.03143163615091894,-0.14657733519888047,0.033871539078369824,-0.23878840455691205,-0.5407839170315573,-0.1331175787068994,-0.3381342291132187,-0.15855895422002206,-0.21109399335853227,-0.10263448269548509,-0.02621689294483322,-0.028509824329482455,-0.034344356351744675,-0.13999598072660357,-0.07960213033013719,-0.09234203158670065,-0.006537250900583475,-0.12990648366441945,0.009380451194915072,-0.3220709930136892,0.009468805891047335,-0.19082973458739735,-0.5352549441917899,-0.08950300770923918,0.05181324713795524,-0.47089893018994083,-0.01695671326350878,-0.22070229248916562,0.5809597968894246,-0.2835707223291802,-0.060128403422999833,-0.0434103875293391,-0.1221418083797815,-0.0639365742281746,-0.10741199581783661,0.7317579019335169,-0.23462993631204695,-0.10916762787595063,-0.09626646034380473,0.08647474699364668,-0.15899104596960495,-0.09746709460333065,-0.1826876746012167,-0.12051402982213955,-0.13497642022459258,0.06339182273307603],[-0.07981856916320691,0.08072696560690518,-0.15350740162295848,0.06623250448038542,-0.08899602030389003,-0.28699911057031813,0.0866154113722806,0.02110954199780985,-0.27445548625375127,-0.11742234623404907,-0.03968621741064679,0.025049776333452727,-0.08966260480874319,-0.04922406677835853,-0.06332224187791446,0.07832729054962045,-0.14310440371719577,-0.21250301395696447,-0.1720262084390651,-0.5102916619453435,-0.11229700406829282,0.053587814914844684,0.2192796153552046,-0.06760066939176594,-0.4016955621713816,-0.10585288987633444,-0.22983909400221922,-0.1325555637312884,0.0042082153491500495,-0.039808450266798495,0.12733001889218032,-0.13112460884828686,-0.024994477902343784,0.05743096316833405,-0.20134572090606603,0.025308179078308585,-0.12686702810177009,-0.4265649759223851,-0.23455627422233336,0.05022944960703006,-0.6653832265448807,-0.14854141227922202,-0.10254528629895089,0.009993918711840397,-0.322122827830524,-0.1597162691599781,0.6766767676841443,-0.01170141168221585,0.02897409206913489,-0.023109308298342728,-0.10816546277180639,0.0017995477493724505,0.022527880184942815,1.0778855784547836,0.08068313236577396,-0.14598613727533927,0.02055756841806848,0.05120716809421641,-0.1344251049657869,-0.0664154061241845,0.34198575019004934,-0.18838265921993044,-0.09621290935492458,-0.4195882925911848],[-0.06876736495866748,0.010447236177026935,-0.1631119781229299,0.2345672124366859,-0.02492154964234376,-0.41814010439791577,-0.11086860501626451,-0.0826139814985031,-0.06752759310069188,-0.01617222451434739,0.07393223925439836,-0.03023072303732486,-0.0475696352226866,0.0182809787384039,0.0318130513374325,-0.09974995867859206,-0.17334217112877703,-0.14613740297154484,-0.08018027281565976,-0.448109008411469,0.010170998148975064,-0.16648228478188015,-0.44923169750295866,-0.1049491411580087,-0.2988187441824631,-0.054070560073899716,-0.25982716204451506,-0.08763770645849428,-0.06995215034693136,-0.3256847493508705,-0.014627555126259337,-0.09824432880468811,0.04699181439778228,-0.04951023940384944,-0.11253037660867232,0.010244942619666644,0.0074561513626636485,-0.32214612044313784,-0.1314221106421925,0.10526501113389836,-0.2675875244813489,-0.002594765732531801,-0.1680804070674199,-0.1348735002299583,0.0376585807331194,0.0032665883161914896,0.5992360569850957,0.03133051237623098,0.027124168154623814,-0.015150033424131504,-0.04287412019691944,-0.11043525350589148,-0.007791056568984988,0.8132903140996536,-0.06968519825957725,-0.0771117399578278,-0.06115819851847899,0.010422135500034704,-0.23037763339356146,-0.1331115982997152,0.22942053206096036,-0.07865646183929524,-0.13234205119895362,-0.2474701347701368],[0.019077702401782984,-0.10649131797112979,-0.1803713695748439,-0.2199896702158884,-0.090398730667484,-0.15233515113173376,-0.31917022915249954,-0.4124399331380342,-0.17614289028826807,-0.20348443761339502,0.0047209509238459,-0.368793417760085,-0.02395024415090247,-0.1311282049417454,-0.1207689810520749,-0.051117988736243625,-0.1152830806821523,-0.0448918137576847,-0.1985974906866172,-0.19575014228914153,0.102140546045262,-0.5328999893927434,-1.068353672917946,0.01721960249247525,-0.4359117618427096,-0.012853258223314387,-0.2859368749681687,0.024925270387991687,-0.07098132552993473,-0.11530014470193688,-0.13581003058184263,0.00834842410265527,0.01594054927033842,-0.0778788348859805,-0.1047663179913389,-0.12021818723579568,-0.07021372647022278,-0.12681033883193368,-0.35049527702513134,-0.05887464877417622,0.13525550671505443,-0.10048531189506468,-0.015556110038547207,-0.17317497189748812,-0.16358227191918037,0.10216546534908208,0.5376274819068217,-0.2796566879633823,-0.06823628140296786,-0.062004618533314876,-0.036520673921830483,-0.0297717569744197,-0.07306768329575904,0.7626455262502981,-0.21387007518649206,0.03031604106335925,-0.06451466659075268,0.06280536724262901,-0.2587916005903281,-0.13314640890735313,0.11216096874479982,-0.18931366322655355,-0.20718346199720658,-0.26433197110400497],[0.0886093544942362,0.07510014238878476,0.03506769319036645,-0.3060829385015747,-0.13443079067085134,-0.43534750239981795,-0.24457565311466564,0.1069917749950216,-0.14876332747815524,-0.052297751399128185,-0.10975765576820842,0.04942111369476838,-0.052422432717894894,-0.0643688557672409,-0.06373628792848463,-0.016537224113088674,-0.13122600219967498,-0.19669910335941115,0.026090738366081594,0.2301092039396476,-0.00015390136732711227,-0.2459189895422887,-0.04383703207726903,-0.024799107871205067,-0.005401309661814983,-0.055342286043461246,-0.32637885291555646,-0.03497118980533376,-0.1224354931358871,-0.006691228674442835,-0.0502134670050202,0.021600571464196767,0.10672082841039693,0.008807360298060455,-0.020355177819002368,0.03742564526951015,-0.13653731358187798,-0.13470096305182153,-0.2635376777517165,0.12008547699166802,0.16845382593044433,-0.05041114861462855,-0.08885412878484614,-0.08894228357036346,-0.20379880077444656,-0.10125228558770823,0.49213061012341236,-0.18112097180648415,-0.006354933938896221,0.06921315544336289,-0.0464798272026794,0.03424800788586422,-0.05182805784045972,0.6729238341018624,-0.13908980448857955,-0.13868670690432514,-0.10529645991306354,0.05500822862441572,-0.18818965749697206,-0.1930884766215977,0.18271971208736146,0.050359239939575424,-0.11223808009211848,-0.38174809788289515],[-0.1811192114729617,-0.16429066941057424,-0.14107301234520098,-0.15837764130807683,0.004385666450037644,-0.025350482854955357,-0.033269704922244465,-0.08902157687089247,-0.03856185602071745,-0.0183399803740692,-0.10783207747148096,-0.02138660411922947,-0.02358442190743896,-0.09941899163840891,-0.15274104271202016,-0.06786490089631737,-0.05558530220372286,-0.10898647587484545,-0.16692806816203606,-0.12440191780838974,-0.06470287943351201,-0.22769213130706012,-0.22162114451174228,-0.1046497272881365,-0.30064973723475774,-0.029550158149594254,-0.24758354082778236,-0.12829442247611086,-0.044750020320498275,0.02721088502656576,-0.18560028134209658,0.017422264197466692,-0.030539561831462135,-0.0970365029542469,-0.12318870766225165,-0.1458475872231396,-0.10449551251248919,0.021089624603417685,-0.05965072739970402,-0.19792660509034407,-0.47187827127559,-0.10973184228955186,-0.06028636972878264,-0.07227285776856296,0.13671473957520705,-0.03580941489485538,0.7255377250694635,-0.042703901386039494,-0.07795674369431456,-0.09755668134759181,-0.01942113133488209,-0.05982209648207308,-0.0009852781880619434,1.069632682979067,-0.13443014566891728,-0.1570018560295343,-0.07398482816418148,-0.09158758998736136,-0.005835660694361593,-0.0183819318206171,-0.07416167736363563,-0.15106960744704803,-0.10468643193196633,-0.20356565045913352],[-0.07223050344535008,0.004433324079238423,-0.24448662092347595,0.16192733442360427,-0.02999128902237198,-0.0752147188986065,-0.25806038849970453,-0.2553471781271049,0.028338885148782255,-0.12862225841474012,0.08510977471955856,-0.20193405976923412,-0.013878115544368502,-0.13793907869992322,0.022189682967623716,-0.02979992649192714,-0.09727576292756021,-0.0917548134989467,-0.01596392083988584,0.02109704502939814,0.00471088612993706,-0.24090406094575242,-0.35028839065628453,-0.14563753298192514,0.06665061190190219,-0.06643419528916167,0.09598295032808184,-0.09973410399244818,0.07058206586110158,-0.06251643609132237,0.011399168848609401,0.07233029039389409,-0.056993195199965624,0.035625719686631925,-0.12154113940173102,0.0734017633247164,-0.1362299282414383,0.009245776227371485,-0.07540363463765151,-0.31974098470491075,-0.7197378206181048,0.06397834654422069,-0.07192347449125297,0.31580342719568705,-0.2030007102704695,-0.15163921154667695,0.5289806745124546,-0.17382272235650797,-0.07487597160284469,-0.14875169137657315,-0.20126636614114252,0.029415111867085317,0.030509462776158937,0.18833568383879673,-0.12348616969616932,-0.023403294975801167,-0.04276983027374027,0.01549165741787763,-0.1754868041990571,-0.12229479469847583,-1.029987152596641,0.07729968085663518,0.008693668950321485,-0.048538047365453106],[0.014817075468559046,-0.06567923575404767,0.0062269380496539125,-0.09435282524833505,0.0034007845554153105,-0.17349126411790625,-0.24129218282171355,0.8097219263684217,-0.10615617364362628,-0.08315542356612882,0.03747598188581368,0.0012091394930818244,-0.06528778143881463,-0.01090447475007518,-0.12778322713785534,-0.059996935058512064,-0.034932571188431016,0.03116470140023513,0.009571621440136045,0.14780681142505964,-0.11341140769743771,-0.1312845307749693,-0.6272903600765511,0.024823355398043943,-0.051238720262422315,0.03004576338545094,0.07020600882923751,-0.06338272642325717,0.01179593372154118,-0.13583516336991613,-0.004297424898398541,-0.051103367126382186,0.06040699939235035,-0.06762453028259365,0.037476178993455615,0.10146874772915304,-0.05929805592643647,-0.1682162947162887,-0.037606901047894416,-0.10558133395586271,-0.7893064049112273,0.06374000002785317,-0.030489825196370356,-0.40177205043135256,0.05420732634181502,-0.10577876488501582,0.45230643007956933,-0.009814406645641328,0.03220485095737451,-0.22733400283030558,0.03498981036807867,0.06477297812547168,-0.09963823333312323,0.5467887195767447,0.17091758974300197,-0.014364337807007637,0.1254923825617232,0.03249934106728879,-0.0591560980394809,-0.07736363958298861,-0.13558723884801896,-0.11844732764352521,0.11134970620929088,-0.1444768615333275],[-0.08760113813570908,0.059547467994004594,-0.11024982727904073,-0.05297147714609141,-0.07247093275214193,-0.3991620800182296,-0.23473370888930595,-0.17713820947423503,-0.07200523757278725,0.053585616375948705,0.06655589438932685,0.04314292285111917,-0.0275670702256474,0.12989026142070229,-0.08404431453911207,-0.15686718100731506,-0.03651637577613608,0.11038083854299542,0.08530250622766482,-0.33781950888306395,-0.0182186840673695,0.24877004001458497,0.0638633106100143,-0.03832179551558906,-0.4674641186977474,0.013346784713783977,-0.31206813216944057,0.023282019863943678,-0.04172310285068147,-0.0555348167294067,-0.18432986307255506,0.021812847066960923,-0.028428126364854218,-0.04961092184275666,0.016335896830938182,0.032427219468091906,0.09666586203011227,0.11786768465673225,-0.023111817159819085,-0.08460606938949967,-0.2954091659373049,0.09640937668321849,0.023176333803528088,-0.16640776509979055,-0.34596322265364166,0.127422842965766,0.49392395839488834,0.022446973362082834,-0.10197998948900591,0.10794840169012279,-0.08402940086788031,0.049333091162897344,-0.03881926999985821,0.5853613727675008,-0.1138159922554067,-0.0756721842648948,-0.12569067063297626,-0.03866912896424642,-0.013540886718174992,-0.1041818437948728,0.006685624160220061,0.2534505377274271,-0.2947257639662132,-0.20040239887523273],[-0.05808748449523985,0.0819621382279278,0.026483416118971523,-0.4436034534773897,0.04839057816127391,-0.07876401810861408,-0.11408900487820284,-0.07837572789255563,-0.05251665843855017,-0.037204674826168044,0.0566840493821649,0.001866177715057916,0.07603411527984298,-0.028629554894531378,-0.07230062702427906,-0.02973176048816891,0.07259144064961728,-0.020491044492517728,0.08130772494058498,-0.1377507370577926,-0.030417570528314498,-0.529391847086576,-0.2615088227689445,0.012694627123615498,0.02947028578705963,0.018178526053813784,-0.08511978539591349,0.04901010008203149,-0.007074209162355769,-0.24191459412103947,0.0832985233221204,-0.014905690715502672,-0.05824998108880333,-0.11218351861956416,0.17567638394457025,-0.14385712637811512,-0.003215928631972335,0.1760558990387277,0.1274971986453401,0.11034989644130191,0.4617627623449403,-0.06033022722741108,0.07069702015656475,-0.00013364596968397187,0.22369982732622964,-0.06343288619650651,0.42070242313661965,-0.2176788172140507,-0.0646722066666868,0.02101788135524239,-0.08785595169238092,0.012055594659742926,-0.1617507201607182,0.5236595061247631,-0.10236696103549267,0.07038713069338652,0.056931873606856115,-0.002982881759672875,-0.04695149618773644,-0.0592674015125534,0.20377136607031907,-0.3101288163846763,-0.1966302144207011,-0.5581977569173071],[-0.08066378114331237,-0.043541450956487954,-0.18804494757169676,-0.04697618600672679,0.050072043343488554,0.24200337482331716,-0.090411627611158,0.5220740287337752,-0.09492794527344603,-0.086339590495118,0.057895557233950345,-0.10843063802135894,-0.023769028703423217,-0.08048954810372608,-0.10854509582178351,-0.07546789990441909,-0.0675527115512739,0.0939767597752795,0.005351142597208531,-0.30909414485545555,-0.08500547122195909,-0.5936452739841647,-0.3680647454920579,-0.020939608120955855,-0.32076324166115405,-0.012844521884980161,-0.10213743879677253,-0.013516871725681804,0.05086876896042543,-0.1801754772282472,-0.11342625872113411,-0.08545659380521267,0.08065692999527509,-0.0018631047318268634,-0.21359480501626915,-0.08505909879633716,-0.0417563549744354,-0.4602766945207662,0.009046186378435343,-0.0052326855116335775,-0.32634558256305596,-0.05601479642083684,-0.051590888694557996,0.13291852472070664,-0.1330115593691558,-0.261493688348666,0.4879117964311461,0.03338373386632714,-0.13905727020296213,-0.008976749166036623,-0.1112879251729386,0.04736426025751569,-0.08018446833392842,0.5739737609627891,-0.08670454821460911,0.07437079340118856,-0.1080084862529878,0.046897409961879376,-0.040651680171845284,-0.0952202916965652,-0.10191308861811041,-0.17409025511256157,-0.12049322262114447,0.04214717199243584],[-0.08451123120148286,-0.00011646765203625147,-0.03335312231218229,-0.37084705048812694,-0.06350625639735334,0.0014525771569714352,0.002475087934410961,-0.06892711250405671,0.013716844940613192,-0.08071930585175083,0.016571348592465878,-0.11430618503298132,0.0945635519686408,0.04528938954834906,-0.00005490782851933029,-0.07901107413052459,0.06132787487494176,-0.08554869241474287,0.0027452856760363776,-0.3778505867569259,-0.07257553735664879,0.25081472431122803,-0.26448821395908845,-0.16642871818585492,0.03985555795165269,0.052881160616674326,0.08470331797684404,0.00007721230935923889,-0.061074601916672806,0.06686167478802556,0.08941913008930177,-0.0455000240692297,-0.03265931010726892,-0.054972841249366716,0.008151080570857639,-0.027161119476281744,0.00279345099739396,-0.32975877385943353,-0.12194236597111664,-0.10059146785066984,0.09653720402703153,0.0093290628565038,-0.07078154647971599,-0.27348208798515916,-0.13476916933061425,0.03114787933663116,0.48933098945120623,-0.007333717409594521,-0.0014108819123156665,0.06229939296523078,-0.1292969128368102,-0.021911800189348594,0.016313861063238715,0.6199723127966447,-0.015492659076736488,-0.15441961878101615,0.10936082199297237,0.020667677497284175,0.09940728828856846,-0.11927105350340274,0.30123711683742116,0.002485191552036701,0.06267457587974846,0.07707437881876304],[0.04818118177366224,-0.07944751924895943,-0.18347536682270868,-0.5940755343374929,-0.04673856723208081,-0.194602862991247,-0.40295141832268905,-1.3390815066473043,-0.14579545778404931,-0.0641189348286949,-0.08251495362002276,0.07179906545691984,-0.09917381535975024,-0.0829670664547887,-0.10842549672123188,-0.06393278018167008,-0.02651291516713556,-0.07257145715468265,-0.07698856948153776,-0.8214377108275736,-0.031577408188816485,-0.40463789341697964,-0.10330100272383622,-0.030073567378629915,-0.5382974363171144,-0.06853573183005432,-0.08616236627549043,-0.08474087709316164,-0.06313196969241396,-0.042677156237436314,0.057190493062828474,0.03532651120924449,-0.13659455282050612,0.015760509726801503,-0.06930350422481685,0.043982112870783616,0.018524948886233964,-0.5220654739032393,-0.16568496703686295,0.1136275318601825,-0.2613014389104277,0.01966796549668327,-0.07659968090752733,0.014799281175374684,-0.11140652979640539,-0.2802220222067704,-0.1106628387798951,0.052022137345190594,-0.15299467730381178,0.022602366149140563,-0.051098671344289796,0.03849210017630172,-0.17705482017008622,0.30422124470154827,-0.15834160764682287,-0.11988556737573218,-0.07852655545297509,-0.14973869192928216,-0.1443055835111785,-0.09173455867570819,-0.5364376578707062,-0.24600646688309102,-0.012680516109105951,-0.1820330076671143],[-0.10668561868567224,-0.030536988885878063,-0.09771742127349349,-0.2715195378778509,-0.05299292117878655,-0.15033975659859175,0.16367632226931778,-0.08597635746555485,-0.1974678405071135,-0.11913081664409048,0.07901209726567861,-0.13817197571298478,-0.039197730316874,0.059229261161968215,0.0744103496452733,-0.0697546800758943,-0.1345183041104723,0.066852394183214,-0.07662240787206151,-0.17757432804546286,0.046786906382239646,0.027637945750413128,0.1417937230588584,-0.09152821243821557,-0.12380538839667714,-0.057569929020951094,-0.1265900356264556,-0.09444953046612761,0.016178155728562515,-0.012593115667650546,-0.12476942540985744,-0.0417016441525642,-0.07597185313713835,-0.1446965341148301,-0.013566436670942683,-0.008296330907622733,-0.021694317012390888,-0.12733173048166627,-0.06819258686773666,-0.050416495719871425,0.11318081259617685,-0.10952032276971328,0.014235634213554192,-0.1285372628726058,0.1566485028373572,-0.0246883125740602,0.02462716933376766,-0.0808519365573247,0.035086132297315026,-0.10360576794295746,-0.13529006448570155,0.033457500958624126,-0.0160437610344176,-0.006979810789005814,-0.09460927749346221,0.04657120079780706,-0.02422913541924304,-0.0621730472563614,0.07351846132830434,-0.050873340886081794,0.05886420343852367,-0.10686797078010704,-0.08989144638799033,-0.4534563368691035],[-0.09747514104519135,0.02346044056050387,-0.03949336876271877,0.12115002781779946,-0.059253524190105746,0.1907327674308635,0.00025440476136787723,1.0482778660663081,-0.07380319909060014,-0.030643624960711532,-0.09522941526538566,-0.3660810189579329,0.16274280398637572,-0.06816753851238308,-0.07486271998857985,0.02924841723941024,0.005815152402767232,-0.059781735210716884,0.01788779272368787,0.1278702595295062,-0.02995750104633897,0.39052564144495344,-0.7488756554531975,-0.13488025692070926,0.04162407122944766,0.104281924596358,-0.0008994118694169821,-0.06966963250804326,0.0033123516686643204,-0.12854523121315223,0.028040428097282192,-0.13376583817000462,0.005409470479148522,0.008767849889233893,-0.10731683604291646,-0.03816323954918759,-0.028152003254221212,-0.44275349126466457,-0.13338185542709893,-0.16312359059784456,-0.20867787359883708,0.06688533607989812,-0.005128849654663358,-0.0029225652881522436,-0.26899162644831076,0.0675852733994299,0.3211348254533266,-0.07628295164690214,0.028577003068536347,0.04526531096954867,0.13390060139349458,0.0986149319582913,0.04303505714659395,0.2641524841121451,-0.006473613187467089,-0.01396692175919296,-0.040511696820628135,-0.0009197595113951796,-0.028567295475580273,0.1130866586215154,0.7038089426956833,0.20834461122558273,-0.1392918463521763,0.08620692738891657],[-0.10547096909008301,0.0036356000774570366,-0.0865874137764696,-0.07735576570627888,-0.1202340168540233,0.21079868652468337,-0.1718599407385916,0.36447526496033555,0.0875757013831445,0.01850727759029743,-0.07827605687454157,0.09335711791256376,-0.03730889297133225,-0.012003579846233773,-0.007678180290042856,0.012288136087603738,-0.078289035617216,0.0322685723060292,0.046652077811413756,-0.3866604042955131,0.05471232143092592,0.0836750527726058,-0.972241632271014,-0.06436905492621395,-0.22616445089736492,-0.09313879207550965,-0.299006799503093,0.0792531192944903,-0.13358089505216802,-0.12017156541897801,-0.1479063597868588,0.03709692359610744,0.03555798972698081,0.04209227418918773,-0.12123971038486243,0.04807434051148167,0.06522182522008406,-0.38840529960743414,-0.10987452759864794,-0.20699225802225202,0.017722530392100797,0.054068901776392606,0.017217622687441748,-0.1676820555738419,-0.1362586924379146,-0.036546187937438655,0.43000208641273063,0.1434852206421112,-0.043838376053534,0.32764016661294987,-0.06900040881214416,0.09790436073506788,-0.004345217925250462,0.5599808003336414,-0.12615754647889557,0.051294759101619306,0.020965340460495495,-0.07291773359605656,0.002954133273217578,-0.14990911819949557,0.570747989295927,0.13372753399886925,-0.09652471025397677,-0.3939905486046061],[0.031058144704048267,0.005601193128415585,-0.04991694499128794,-0.10526207395835026,0.011296082801703931,-0.10223285542257543,-0.1972937660209139,-0.003524757182293413,-0.17218175229111735,-0.006406710576296696,-0.04933536058626491,-0.15025368485835738,0.043902559087135404,-0.06432268017976876,-0.006549074480833436,0.062372176662157594,-0.019033807550855916,-0.11104601310225022,-0.06377544457772474,-0.2664613610727677,0.044585825866725895,-0.3233323551038919,-0.046391946963581954,0.01815946597096378,-0.2652595388301688,-0.014183296046731108,-0.06385040772185717,0.01123262794504786,0.01652040201209237,-0.038166134898790484,-0.06264714520237248,-0.01863658311049555,-0.10773798696444613,-0.03995842767165331,0.007441489567967909,-0.06436901362538441,0.05521432501023095,-0.18470644041258366,-0.09664285685035903,-0.045266903446634865,-0.4911938385909119,-0.1422921394270173,-0.004861736800460332,0.15005965292169537,-0.10977379819208126,-0.2217749053572679,0.4743593529930105,-0.03311351146564004,-0.01957244486950198,-0.2460368598179502,0.011946618544403766,-0.025818783308661945,0.01865194752391887,0.6042771607128061,-0.13251868056850913,-0.056862578668015286,-0.13737082533966813,-0.051173490050858285,0.05773878396300966,0.08045631806897202,-0.039813535649724056,-0.21887365850143597,0.15413149123071082,-0.020595672153547122],[-0.0011479084582325305,0.02337530460679201,-0.05425437107682369,0.18738015828190605,-0.02018701673354839,-0.32828030084149584,0.1939996048662659,0.17832394755122624,0.00859366879892748,-0.04426384759663809,-0.0467757583004329,-0.026603230033158745,-0.1964272563240766,-0.05411090786006938,0.057132301910270994,-0.10680793323601467,0.022808636494004962,-0.18261016045346157,-0.015194456913281714,-0.10795683610989656,0.08076212853824614,-0.2262621289523025,0.00874917373454716,-0.04793900313646785,-0.06587810079660339,-0.13042786998538206,0.01581357127113018,-0.04639680315712057,0.03527171522461761,-0.09206876459343226,-0.1012170002272818,-0.0060344916571146165,0.0696027089654702,0.039556045158395316,-0.04830513192973967,-0.020942438699178376,0.1159783059976863,-0.24273210997533887,-0.17818849594667507,-0.3289856703380496,-0.31298918701972467,-0.06291983667277326,-0.0825350981438125,-0.3702499496466274,-0.27556589404025833,0.2915160933825939,0.4815235269980428,-0.041182715077558905,-0.14874408549551854,-0.008806164129103636,-0.025238672283543147,-0.09036879470224803,0.1493273736699623,0.5673262516218408,-0.06049012909273838,0.044974561769945146,0.03561491863662996,0.01463724825685249,0.009303171878120587,0.05289095008689037,-0.4663923081369876,-0.2259082139807266,-0.16506566096133848,-0.11239213596266187],[-0.06209891211953864,0.010082435817792045,-0.009831691183832942,-0.4217020914564003,-0.018648132401563388,-0.1272571702549869,-0.06563207542006873,0.39062449102775004,-0.03800928542705977,0.05844410997335684,-0.051807881737256214,0.10836761484248819,-0.13325822117199146,-0.013978886151676218,-0.10998037804442773,-0.07305876282875552,-0.15309284232974066,-0.12437893200291672,-0.14118401990957832,0.15948614687414805,-0.05915479223895909,-0.006763765764804266,-1.249009592415767,-0.11540756080775331,-0.14783740375693535,-0.011001184876475445,-0.2526514616756094,0.017348584469430096,0.01374438065596401,-0.11180862927521816,-0.004168613159958587,0.015712533542396188,-0.050238972487449025,-0.1302185541539916,-0.03037260467187699,0.0883945701115482,0.03721068874757324,0.022674367001158068,0.08241953935755597,-0.2771549267667616,-0.5955069618319935,-0.08200723306282054,0.041175650539041875,-0.34195995620026665,-0.2939131232945701,0.005559680449437882,0.44496313603564275,-0.03374003502426522,0.028267524925003635,-0.0454288292063167,-0.09370615171495794,-0.015959509164281002,0.002030176447780862,0.6131451881483787,0.09525900361016088,-0.06178053081734808,0.06658907578049317,-0.03916915389244084,0.01576441031183162,0.0022409898518328,0.2189842214359882,0.1165186076401306,-0.12853150212803421,-0.2550015982944796],[0.00274349239825423,-0.09861390180623651,-0.09486070042366966,-0.38853864417835154,-0.007327484551874341,-0.0877902961804897,-0.12329847703899195,-0.24779191617318522,-0.15963960429876373,0.0545520049853039,0.025129232930761296,-0.16953682250276172,-0.12361834717491298,-0.025975396785343084,0.09763959956374368,-0.07953955143852488,-0.024504360512543177,-0.08319892737906612,-0.1073296515210123,-0.1434511322648633,0.0029033406545166114,-0.35224885680606277,0.7351023772958388,0.10716288352761276,-0.0286412742948321,-0.1115351785731248,0.09280902163515763,-0.029037545191654676,0.004850327799618772,-0.06233781701499096,-0.024499883940807744,-0.10576609984529486,-0.11834699490734787,-0.03618310492550357,-0.14975151551684454,-0.02071104509801844,-0.07333287621031355,-0.0894814177467538,-0.051018856051913634,0.20312038420196482,0.5355170139130572,-0.009139594146716414,0.03324565392925838,-0.028304768569070146,0.11432971328610898,-0.17451074886423582,0.4482853531248936,-0.07043428766735721,-0.030449387885669813,-0.2882752479859832,-0.034026779950717186,0.022984388539083456,-0.03675550211076141,0.5827774041695176,-0.08766867463893616,0.05166367439293792,-0.060927006834108136,-0.12567197216058143,-0.09159619327673461,-0.041058232861507525,0.34215724746433596,-0.05256375837442897,-0.0776007746020835,-0.10965387402286206],[0.020507486812322766,0.004477124495171591,-0.19574505871042155,-0.26135380652793244,0.019376860681408297,-0.09819719252312009,0.07490314616521546,-0.6827515991686116,-0.019482389054615506,-0.061738642828457466,0.03570975046503933,0.015437857347357425,-0.06948220050761372,-0.1563834430357487,-0.1845200486102415,0.05699013724021729,-0.06742426983601665,-0.2058249628211916,-0.016428061058553524,-0.6893294376750225,-0.01158607507277914,-0.2850472103927341,-0.08132477678951629,0.047003350652256574,-0.4010960616283216,-0.14211193213131332,-0.07752377666472018,0.014642708776014953,-0.012196406766736306,-0.13875944006973573,-0.026801880492116705,-0.072026041129299,-0.1592437512216467,-0.04077877343811296,-0.04230818154800549,-0.025944999849419795,-0.1273840011216589,-0.3780878020879909,-0.15864195415904017,-0.1404842525844856,-0.2775251703596074,-0.10778047540726783,-0.00375133225313275,0.05744503845930213,-0.13560334966887969,-0.17749155791549162,-0.01433365116784424,-0.03994470150519632,-0.10298723985318099,-0.012529386959202143,-0.17969569226502444,-0.1461047824645504,-0.1297972995121602,0.19914248505132273,0.027873527515041917,-0.07745019056748195,-0.1382045827852235,0.05126389171163764,-0.15201077950788802,-0.14852016535768506,-0.366747253800364,0.0015591708458439991,0.03315596014886503,-0.28074875048986153],[-0.09747749646007792,0.07575946556068165,0.04501370474412701,-0.23542150989737373,-0.04051448973112475,-0.09251334507296691,0.06105192116734284,-0.19289575416235608,-0.04907232567517378,-0.08312215305753383,-0.07024982128858064,-0.00997884368334227,-0.17387177270998544,-0.12312730252724664,-0.04270827711978028,-0.1561725827454687,0.029996686272094068,-0.12307209075522528,0.0433640379944665,-0.37495224191108634,-0.018840430317819994,0.015503263490566991,-0.19762897755465159,0.005318362354908193,-0.14486982040815097,0.044282663141624684,-0.15062865377767148,0.08640829779541703,-0.09867375736107549,-0.06089837342194029,-0.05520751937531656,0.03735615551513104,0.0062138104861210975,-0.13239862215489698,0.08284331060219995,0.003515214889889138,-0.04655169923654298,0.03812192993544423,-0.14636189895929783,0.05839968587002779,-0.11666782196809897,-0.14694360519420277,-0.10637514523724043,-0.1038389728671743,-0.062468808134100606,-0.12634405928686393,0.002973398118565321,-0.1479388531606865,-0.05419765951846702,-0.06325299238962438,-0.0036650403086416986,-0.13351316463636204,-0.10015029393952886,0.013181526270903113,-0.19094837480899282,-0.14913893190640237,-0.12892401702887335,-0.15140563318272857,-0.005562700239077297,-0.033628983573555864,-0.03766760713508765,-0.016463592979835927,0.05779582902481147,-0.19444423257473548],[0.10843123285446317,0.07195288707011628,-0.07735628894371482,-0.11350844847791929,0.008543722572369397,0.0331705183284626,0.20584322244450587,-0.009692745751324115,-0.10894954407986202,-0.040358123318333515,0.04702418189802165,-0.08899909901692385,0.18218031523454878,-0.02000762322565802,-0.05166032814956513,-0.016872964907968104,-0.11629937934162707,-0.015904203946862663,0.05813561286282203,-0.4886841194431489,-0.13639122929497333,-0.243310505311409,0.13429554599613405,0.02212934293538991,-0.047014858088997,0.03529416809619083,-0.046740370001914305,0.030599676050012382,-0.17811620875547246,-0.125241693692485,-0.10431922690227166,0.06713873586529687,-0.12759549740071377,-0.16538498185093115,-0.035410620017284525,0.14583583127663474,-0.09567084891255802,0.17868438197605077,-0.17006391702186546,-0.015400030804219537,-0.20112395266586985,-0.009770271207792938,-0.03728196980931728,-0.23626146574663376,0.28570116995828054,-0.01779030345749341,0.16433607041837958,-0.2497261598004572,-0.07734964808129302,-0.18100887539052007,0.02317902617946851,-0.0662103005931898,-0.04740522114700417,0.3379505382400844,-0.0650313601200555,-0.011325539381939108,-0.13070486300847828,0.022892527402207916,-0.04184921634354251,0.07293975520681387,-0.36708892367137985,-0.21878611325280148,-0.46338656197113676,-0.44314815228334864],[-0.020194355292941966,-0.05245622011391432,0.1056578666168883,-0.2604730890947401,-0.13200766395666336,-0.14467194420957777,-0.19328187139367145,-0.15746191908863622,-0.08219190646058673,-0.13236980533916748,0.015362076067896288,-0.10138715688429312,-0.1107727368994615,0.029498882159989415,-0.008854054930101003,-0.09810456090965192,0.008861046265885972,0.09108029787486284,0.04271699501071297,-0.3295123171204633,0.06858783163139875,-0.21303528242449013,-0.5397898328751729,-0.01058983039590259,-0.11843401246163036,-0.1015114984856127,-0.10386611045010707,0.01255627185303338,-0.09928899989912109,-0.12296181479937812,0.15791554505829805,-0.0739518035576954,-0.11858330918054759,-0.12829192643037887,0.03451230582634454,-0.09785929421054376,-0.0457090753054227,-0.14124481178320122,-0.06445037509311613,-0.33173047476765977,-0.2900345224858412,0.0842157412529261,0.021716551923516052,-0.24183014724067958,-0.28431068872537124,0.12429744914749508,0.4159159356496408,-0.0013278758315389547,0.04835518909278567,0.18373082797448995,0.026579989777081037,-0.030738788533460938,-0.12315511003945313,0.557528447151153,-0.18852838052967422,-0.009473018146674408,-0.11055352552574758,-0.030120729175061853,-0.034383811136717395,-0.07618951803744492,-0.011946496275154525,-0.1388956760561415,-0.023193181311229844,-0.35661073252812],[-0.11822720510074057,0.007840180124962305,0.055959718006075625,-0.13158506573051795,0.08096410889690839,-0.13460254814725187,0.0667326235358808,0.28420267126275883,0.04366228164775299,0.04087825697698804,-0.10443377512855809,-0.02890035210308133,-0.11267909897136727,-0.00514060238695691,-0.0738165475731078,0.053274639014348875,-0.06858741832864446,-0.06307941387228984,0.050973223168426555,-0.5307174151203329,0.04084678480537948,-0.08993717550678508,0.06929396013393165,-0.08624189731322214,-0.3806126581831469,0.059844022527011924,0.16432197411429558,-0.1341884737774447,-0.010050940144300868,-0.104363098856923,-0.21497358589616186,0.055754062350349395,-0.043737744259109576,0.005133876502964282,-0.11167585328689954,-0.03424482332622416,-0.03424951373830046,-0.15344268355202778,-0.11695200938281074,-0.06481214593429677,0.22364603730204516,-0.08928143806452606,-0.05484591150203946,0.12356740662733137,-0.07053015742186941,0.04791323918529303,0.4280557049190796,-0.06593079937800661,-0.0007560925398640237,0.14955897248273933,-0.058031741939747625,-0.13392814133781308,-0.015041632370260568,0.6216275209445982,0.0747732007291733,-0.05209845846682359,-0.012116837445083779,-0.08566824597091939,-0.15654778872562697,-0.03884988420886366,0.30407276961870705,-0.16542176135579162,-0.02671292396716642,-0.08101181785784803],[0.03557727629421362,-0.001469032243568188,-0.14002258041799984,-0.6357773109227334,0.06906638170109033,0.10319704731890733,-0.28115960323067574,0.37264582048482875,-0.056708924448245594,0.016997632316377347,0.07062196679454104,-0.030256880982614306,0.08661396145989278,0.058804723095034435,0.03166527784089878,-0.04940591281117039,0.09862535997783765,0.0017626994382658253,0.002895779351188419,-0.4115341113651703,-0.09265636352473823,0.29622723421341995,-0.3438502169512901,-0.12154626484456295,-0.025981774053416094,-0.1094046320894234,-0.046010314629554405,0.08235815409811977,-0.0033111939841745206,-0.20954390180281982,-0.014914139951684632,-0.03464127858033314,-0.042707777270419155,0.04277178659965161,0.04533822844108616,-0.12462489217812889,-0.052198091061486256,-0.18162085076319695,-0.03205426714507521,0.001510225216308538,-0.15049900536528613,0.030985394425223186,0.007119399383573681,-0.05023473180595773,0.18160517210048446,-0.16621245014986932,0.40795329632680616,-0.14886263067582167,-0.005719937483217697,-0.09758256199837885,0.0029391888030899415,-0.06960336885709276,0.06886850927430586,0.6369284671954487,-0.06818340510919402,-0.02708354981751229,-0.006912553171242008,-0.04878184716527929,-0.10250361564391475,0.04051860351390141,-0.08196642162756658,0.19243402511936272,0.09504706264202745,-0.07865269775278456],[0.05033941718252309,-0.028726717891500605,-0.09834570834247656,0.004131704196593523,0.1048043702033294,-0.1614934410061468,-0.061367238287469025,0.37063683279692794,-0.1533561404570333,0.09191571334712685,-0.023012087379724044,0.18606363683158814,0.07920295836640322,-0.05806105737206719,-0.09445813895729395,0.00892738312511619,-0.1563983459046965,-0.015658869821345105,-0.07248245097461128,-0.43979853954322173,-0.07954359425034917,-0.20153891962396742,-0.12781155453298584,0.014322527182659774,-0.40120984263539095,-0.1364219014440058,-0.3928841161113036,0.0021161600870326894,0.0034873878022260553,0.017864199806381553,-0.09821315634828001,0.009264848475686037,0.03796965893414266,0.07948908418850094,-0.03635454563797291,-0.08379090209840188,0.10001330577823912,-0.13503103463949914,0.0077738924900672395,-0.1309725939909495,-0.34050070812366884,-0.07017899372605045,0.04103679612109872,0.024598360265096625,-0.33179418377374886,0.09232581689837144,0.42793492686018325,-0.11758040993575204,0.01128405956598688,-0.190378290338501,-0.1356075073345294,-0.06311644744424381,-0.15665342890974607,0.580779392547529,0.04686623840255443,0.03946477467578979,0.04699730597742939,-0.033783213841776724,-0.029290856204734976,0.019859072183242784,0.3277304142277941,-0.34456687924959284,-0.10296243495917842,-0.36934857984732034],[-0.10477686106529184,0.06305395692598487,-0.06135419934437991,-0.047636147197696446,-0.05299160313378027,-0.002916325490867458,-0.10909249478916612,-0.06635335012188794,-0.10647356323298625,-0.015932011906399528,0.0547930494908274,-0.2184907755880166,-0.21902759835238925,0.0513603424064537,-0.00803407427349186,-0.039573645604762155,-0.1869188044284607,-0.11336117944422162,-0.07046200812178265,0.41486107504042347,-0.06086062366476105,-0.23303911896753032,-0.787923954380497,-0.01848267877221658,0.04408217602573068,-0.04003773833046858,-0.20414420667179564,0.030937636317300843,-0.10110208623515007,-0.07176177812391243,-0.08267558447414118,-0.01476439083232769,-0.010946267640624948,-0.0524945752594731,-0.14026408237615914,-0.025058685674250954,-0.18337769315758018,-0.15405116064341515,0.028135818051296814,-0.09397494071307516,-0.010817679768469816,0.0047820397449266526,-0.07884705158401535,-0.1668140840409687,-0.09000554211381619,-0.23859074163490746,0.42181920532906697,-0.0653625493689756,-0.22065132634183224,-0.27394606538930194,0.08266898598191752,0.02066702863131949,0.008294172054409247,0.5904410390421881,-0.05530033153868873,-0.11417409226644101,-0.08095208309050331,0.035321572307985744,0.00882895489382772,-0.021293615974641224,0.14045714710292484,-0.050119966179344916,-0.019370193741631334,0.020459074884146437],[-0.12572011689035104,-0.1356801638051325,-0.09792579797879052,-0.8440148316780166,-0.08197470210993217,-0.20181025672822314,-0.18700608580515954,-0.7953827492742903,-0.026416985083912152,-0.17919198643376102,-0.08798057190557099,-0.04558667127622455,-0.14337850859105572,-0.08936765560806609,-0.16239512772368395,0.008837317238963407,-0.10244256733938284,-0.039549808392760614,-0.05503260541043246,-0.5250755067270652,0.03195065087443938,-0.3857321820131365,0.05812011296275777,-0.12187612167237073,-0.6123562131655933,-0.08506136372673039,-0.6671849667448259,-0.1084630627803632,0.020339027091184295,-0.045415455341447065,-0.07362813463701216,0.037585182062304094,0.04818520535243185,-0.10474041286277827,0.007946912793401985,-0.052598179480142906,0.0604534524104399,-0.04188690478792178,-0.03825734518608991,0.0814260471890298,-0.1208223918441916,-0.19277557473893966,0.01577364780733316,0.12042383862114718,-0.1661181714184662,-0.09187879174773594,0.15936442397449732,-0.19933278871772853,-0.1297369761289544,-0.03442509723185564,-0.1908091709878749,0.02269884422622514,0.033975599251468994,0.03801884933877811,-0.12627286258167122,-0.028471497129386326,0.05849383866909008,0.06235209908176527,0.027970559621677386,-0.09299471202083417,-0.4757212939970323,0.02648461447493464,0.06768562916900445,-0.10338007084137571],[-0.009411047403859249,-0.138855102103808,-0.0840050232128609,-0.22142519920587905,-0.05020864269087968,-0.08985501070688892,0.026071188771263472,-0.1783907320079478,-0.09670434499295032,-0.13240364849539765,-0.06534853531402303,0.01730220456490804,-0.2747696912698604,-0.026589385506041167,-0.047796661607495086,-0.14846974917526137,-0.13470843043461958,-0.10626579471607234,0.051646186841095246,-0.2946505026188959,-0.061212711974248914,-0.1815135006242357,-0.40917789441276387,-0.16866399038440477,-0.1538077213847647,-0.18279443546829954,-0.014320443955253205,-0.010811102753339437,-0.10683504809748068,-0.20004571394928794,-0.039186757851030166,-0.009848932973347378,0.04853550805496477,-0.15482017379708463,-0.04714111602165148,-0.001762502701386136,0.028615626629267477,-0.05049956630964199,-0.1758047838724244,-0.05078988810857704,-0.18559943687584035,0.012952246411842871,-0.06745236567855141,-0.10673666642505268,0.2131473219412791,-0.13008579150245617,0.029011819765272666,-0.05389364152166005,-0.06506540404153674,-0.1617662644479931,-0.0021908216921020253,0.004286042978307585,0.011781739946192516,0.00939237333462569,-0.0819791474854307,-0.09652070388662327,-0.1454267124497788,-0.09234814500670509,-0.19079075947544558,-0.0781595195300269,-0.035164296207562784,-0.305999638762541,-0.022244430593903783,-0.4801639989275567],[-0.11395359237480322,-0.12413010091089838,0.11428116243432498,0.13094809107566682,-0.043329904410268294,-0.20911014945265669,0.18098353305644,-0.4176578604575723,-0.028193273951396144,0.045688258122675546,-0.06547589369299861,-0.030333630614026448,-0.04256313405282587,0.012863924901753655,-0.009234083246167186,-0.04086135476053792,-0.03317444053392749,0.13278255357891014,-0.074101442691522,0.15942217132255238,-0.11542018984891197,0.00234930358766001,-0.4658743977084741,-0.06668616108523293,-0.23819452890296602,-0.038736033888924215,0.006364763753745598,0.07442846471133639,-0.11344870631685218,0.10522766240682564,0.028709614847527255,-0.12713076162964457,-0.05773393188435786,0.07606741997345723,-0.17563037846544657,-0.08028464574948448,-0.14582377314499018,0.16271306434899627,0.08014035835040628,0.12852969390434404,0.07800471401587795,-0.024446704940529876,0.04153512972131415,0.08687183001218006,-0.2909208067028334,0.1261527127370921,0.16875404925393397,0.04279510908164769,0.05007421068321039,-0.20349603935054972,-0.056421221358132025,0.039856520431355284,0.003935941011617419,0.368744175429886,-0.07708138566263247,-0.06597558077974232,-0.07310067220914382,-0.06346763182272103,-0.4571068874184463,0.0546302005852107,-0.31934090057245856,-0.2670353148880709,-0.17315949358236768,0.28458881384402607],[-0.10804691911539638,-0.0856367091229892,0.05094542779950918,0.01810251153510769,0.025208788478676917,0.027959287722116928,0.12873779782799827,-0.17198832475423623,-0.02486700150577114,0.03616300463948679,-0.07064936884706666,-0.024765555614596615,-0.05176127351913894,0.05876040573168311,-0.04165775913411162,-0.0010008751258899944,-0.07502133823699164,-0.044922083990499864,-0.1116142136127498,-0.21743137542914545,-0.03997683925212959,-0.07990031292446204,-0.7037593351924898,-0.07916302562125048,-0.05482765441653755,0.05462533225399571,-0.1148717551681228,-0.04691360421275529,0.061989046014116186,-0.1799464826116398,-0.16821490329727387,-0.02403307808311424,0.09360205134684517,-0.015827658085869344,-0.08806921558730021,-0.014655343198628053,0.05383326201354054,-0.1700002279142545,-0.19149004016345328,-0.25436441850745917,-0.14258832277778077,-0.09215692087864262,-0.02424801111514947,-0.010657539138267008,0.12908031761094146,-0.13118816137318076,0.4049416208064463,0.0023608496611613717,0.05671584598190148,-0.13958816710927452,0.006351472527933595,-0.0035774570174579375,-0.044979164127873866,0.630829055674388,-0.1860522142680102,-0.02064381362840128,0.05064108815870843,0.015102115926904898,0.08866745447082129,0.03878304217828845,0.058583383359247884,-0.08836696067440221,-0.028271189566668978,-0.022139001564630074],[0.003419709475037843,-0.06324076317921493,-0.06184339879855372,-0.37964772555076426,-0.03644520788380753,0.25461616891008354,-0.01828437169115571,0.2505243789595799,-0.019119301726416692,0.03247015048649144,-0.0638660908303698,0.15182882575518464,0.09079026784158022,-0.08313014200756777,-0.0608570287316303,0.041527678831379734,-0.13368665028052595,-0.09007656809821454,-0.14145446233321746,-0.08440450381246165,-0.10488010436130399,0.19396434454103312,-0.02697259466966168,0.034983622594189114,0.12138887232218118,-0.06024440667907519,-0.023750951439025905,-0.0858588411893588,0.019439741001561723,-0.021557486031764665,-0.1613659056233686,0.018564553556285435,-0.0239066626674099,-0.009000823374523657,-0.14427240752465673,-0.044961518071207116,0.01477745982720729,-0.21128613459849557,0.026486906663423234,-0.06073277819414946,-0.1783377613349069,-0.1348843206617732,0.07124585935582062,-0.015612395167886322,-0.18322022274303804,0.0889301736218313,0.5481783976291296,0.011052462696311886,-0.04738948106436996,-0.19675624224402816,-0.036703279939454624,-0.032593322094624476,-0.0841466257785805,0.5403397488594737,0.05875830162867826,0.0016444612363361126,-0.07168942881036015,-0.037366063388755075,-0.024997361529674904,-0.07398693177934552,-0.11374106785557818,-0.34441677954707395,0.15435362613330605,-0.13464188511694952],[-0.0019463475038171648,-0.08424043669583536,-0.09035043036754876,-0.3315383131114382,0.04718637888462302,-0.49801432174101784,-0.2556259789838906,0.21553291505324967,0.05597129564612108,0.03057727628828232,-0.044061478192260264,0.04224272978441106,-0.026972643443079074,-0.10883159366411631,0.03622832305972036,-0.05610871526518044,-0.1471010187800028,0.03896281131226705,0.017281877569431926,-0.13960114219078648,-0.09711532985654014,-0.152175678594475,-0.12035346863647736,0.025648240146708544,-0.24967834511486553,0.053924515522413015,-0.18460438148151606,-0.08198649839895294,-0.049487666429793555,-0.049327678284717714,0.027447127797072486,0.06805038931278316,-0.04069177545417426,-0.0718029986835936,-0.024907916268409703,0.020880860613642048,-0.04820854049053716,0.22997155508127934,-0.08624934913028869,0.26917177124221503,-0.2559474198411793,-0.00022991028559123024,-0.10250942873862898,-0.08361869122014003,-0.20741890828251272,-0.16211173204704263,0.533013384443716,-0.16140243362994908,-0.04847157661206831,-0.15242676527213977,0.019974614510214265,0.01874956520685846,0.04280191001478748,0.5983279682824341,0.07725070493757767,0.007131074681029727,-0.09386034915476496,-0.013067567521969423,-0.10425949560008178,-0.061511927487379714,0.29533674795528253,-0.23424500064494996,0.022902035706009544,-0.08368495069277988],[0.006095414260436754,-0.09707857907960898,-0.062209677224126396,0.04694881426208679,-0.06899589010283089,-0.30521021351710076,-0.33343238745002984,-0.18638675943104346,0.02451772992193321,-0.11132449514144024,0.08182513360005306,0.10388066287590675,0.07746367850060122,0.003855023339392131,0.0855044340819744,0.12826845163716483,-0.19002694169153111,-0.12303686678964623,-0.1098869497166498,-0.4738790846872104,-0.10143461339678353,-0.841443544104659,-0.5849504543768239,0.01010829085768305,-0.2359967952996646,0.049287833535993045,-0.3804162017760684,-0.10193334473714165,0.04383860755126411,-0.06021052125952661,0.07151700453794213,0.08324926252870846,-0.08628700852315081,-0.09777642732302856,0.055630517254022536,0.029537124188883476,0.07502071844022228,-0.06770649442391057,0.009798444520880297,-0.23629269065090602,-0.26912558163113937,-0.046556537706642524,-0.01002273719957733,-0.0906252363644883,0.23628996863215618,0.048391269286079244,0.5384026133518905,-0.017403900837734774,-0.005533112734352355,0.1672423831648922,-0.0029192790037120826,0.09532605646554716,-0.11371727238569294,0.5724728952705588,-0.17242614391717412,-0.007128097096793491,-0.04620603730257966,0.02858783381119644,0.08270999387694321,-0.06160000957466216,0.13268131349359563,0.09326518162639834,-0.10521405430212842,-0.06966789253619116],[0.007397393990378847,-0.10049545285446222,0.0185936914315613,-0.2625159641274409,-0.04094705941286506,-0.22369707967963273,-0.10735837046394976,0.4360252006385963,-0.16172467076325167,0.05522485628358508,0.000660995786585071,-0.09740091469263447,-0.1587752272208335,0.005489223669815576,-0.01976376917503412,0.021127296965696898,0.13641375571878062,0.10076381363117604,0.06135004541389995,0.06376103221890937,-0.10672187105887379,-0.05597265570229334,0.11036561189220845,-0.13968937510477658,-0.34368930190515457,0.0006276547194536051,-0.28924164474384484,-0.0211381505560783,-0.10022689160939428,0.0022336611346496513,-0.15790426877916192,0.008225665224344144,-0.0790570067760249,-0.08527815974571606,0.028441066873638572,-0.0013867180740561003,-0.031831976592758486,-0.3074676767574023,-0.059636822169641106,-0.2826035892776056,0.10129393910602867,-0.07814642157634326,-0.0783400289466627,-0.34320291323877217,0.05688821544315251,-0.29327208364550195,0.5105208638715568,-0.0137886342762825,0.05087151095757309,0.030221992751928172,0.008636916483545287,0.05972547782746648,0.05526626921951956,0.6244491437267673,0.06084904900589127,-0.014656677175875953,0.13613585827676075,-0.0520833655955536,-0.06738652978687083,-0.05152076057776672,0.3301315981831989,-0.13570081716495067,0.057351875307818934,-0.297918361344173],[-0.12466298231018848,-0.05332586601364281,-0.21478241258037584,-0.631959602518046,-0.19022494575542223,-0.275764671524566,-0.11530514706317362,-0.4743920696333179,-0.07762383970791412,-0.11540712991403812,0.06791262970746073,0.07354534590262402,-0.2129507135465071,-0.05629558261740741,-0.07206459486345854,-0.13251238337679289,0.11495104153374276,-0.13007784621170954,-0.12653325639380017,-0.4143018844191627,0.04207999083251805,0.06998240716733464,-0.5843077343083335,-0.11923769090435955,-0.739047697209255,0.018551245704713108,-0.3143000168011816,-0.005094169182989853,-0.014598242530114998,-0.015785850226275343,-0.11966609873891074,-0.0017262467465129253,-0.1411315921105779,-0.01707480637300226,-0.2314919631011345,-0.05562184395026252,0.01905311930575811,-0.11740754202180811,-0.017272546050158745,-0.2656455451964355,-0.09539987999857089,-0.036315277751575004,-0.05936488649385911,-0.2957185065602388,0.11935589389417883,-0.030501098437469277,0.06907002680760305,-0.08857207631220738,-0.10879924818897287,-0.017485596306087942,-0.07520677849822871,-0.08564819147850941,-0.13448800264010083,0.04336923997432314,-0.18582547938141536,-0.0672433072999326,-0.13277066823778694,-0.07137180989546117,-0.10033786761281135,0.05044419533380619,-0.33603736932437883,-0.2546732615307249,-0.12769765755772183,-0.025617488540782673],[-0.02173293540482819,0.08212437514219748,0.03881759072441111,-0.1533292772706943,-0.07835075275712679,0.1097224427502502,-0.010714905930935882,0.024880134121502216,-0.11025056932628242,0.048867228199570276,0.04874466099729111,-0.022896820641021,-0.08870953272177018,0.01791160236712511,-0.11134991115415488,-0.06422612341754465,-0.06133752842238127,0.010913390742882906,-0.09954631194835165,-0.37071997746784346,-0.043887416958533536,-0.23491407311825285,0.11053601666399512,-0.02546811193489585,-0.1730681421069509,0.026105519827950913,-0.007561293901978512,-0.11787967888626037,0.06354204116360582,0.0003607444444271559,-0.1359614929954416,-0.04567878091736513,-0.16243381367004817,-0.0036208766121527485,-0.15684216717724062,-0.05469107859034042,-0.021124295676796384,-0.0016056797288114479,0.035335772371441546,-0.18845091012984685,-0.28226436940188177,-0.07144402529456201,-0.11731165596149473,-0.04618904791516564,0.21836120142284332,0.07420446097020449,0.00885514867633251,0.04317293723176887,0.016071172487598834,-0.17622275152057937,-0.09978487464510867,-0.006709631718605421,-0.05267833429001002,-0.0025872577326860437,0.04903148013230843,-0.011098462515025656,0.014888838563833454,-0.03796343846670678,-0.1056059759411699,-0.12190247878907068,0.03682493273064784,-0.07222524802845312,-0.14330256631152555,-0.2689113418476216],[-0.0748004031371163,-0.16105307211442316,0.05542490531095694,-0.3727895646355258,-0.017038775968256696,-0.2691930724597022,-0.21416652472411513,-0.5498808209642042,-0.11801184196658464,0.06427189197153656,-0.09136097825425245,-0.16977354428074337,-0.11762012983497919,-0.04228653967494597,-0.16332202496006434,0.010193111620456188,-0.005595617587717179,-0.13338094648457804,-0.17340068302728456,0.07685894581458776,-0.1043359273184587,-0.28909118578765275,-0.4097790599422888,-0.11964335056353001,-0.3076907758878329,-0.12619745198406648,-0.060128128415156655,0.019034293714562,0.005311338701689831,-0.03777986667683808,-0.07434195677718823,0.03866484850345412,0.039795832925339655,-0.06884984453881786,0.008421683977117983,-0.025272311193408347,-0.21326780520019956,-0.05746865976671218,-0.12978791439358833,-0.0634398589402044,-0.3162502563039118,-0.11941067117993084,0.006303798847868132,-0.11257986211065953,-0.21274811224882176,-0.18081830731800058,-0.047500128079598226,-0.17545453294888522,-0.20894887934480574,-0.17368923933770056,-0.07186054705022811,-0.13650724576637616,-0.01273622701916716,0.42502832367065735,-0.008328426759270624,-0.05656152139173656,-0.18385929245722726,-0.14671102021079374,-0.1747795825025187,-0.04159055403147093,-0.6523905931482531,0.029596475317435977,-0.1532017692005115,-0.05861839611983595],[0.00885238764764694,0.018163855083358552,-0.07478186171409079,-0.11443723702825034,-0.06506390716259099,0.1302492527797442,-0.16581175338854193,0.5367776529755789,-0.14751277321249137,-0.08874563022181503,-0.03039718707415522,-0.08247845154439912,-0.05940362385065696,-0.05335986031750277,0.01156259709292936,-0.07784904495491721,0.0010548489962936061,0.05196968047144608,0.0011184544319335543,-0.6945372378861937,-0.03314630412008772,-0.3658478496326934,1.4251337214700073,-0.07763999931157387,-0.03262171365180964,-0.02997192751808171,-0.1951603855019451,-0.08672969473940002,0.0474539092832947,-0.011075521489726299,-0.08778045605867538,-0.042245813333033747,0.0514185500097906,0.023845192471510852,0.09571030851131339,-0.04173931381570387,-0.10735785238990951,-0.25736775536684725,0.16694315153436956,-0.2721302828566507,-0.8870106678507322,0.06274686101026217,-0.020669688771512686,-0.035388887894698025,-0.2610848908117551,-0.07650902549166884,0.2271543465971898,-0.08114350758710503,-0.1396309493877373,0.08519365998240234,-0.1097909035173579,-0.05636312516025644,-0.14270045315621604,0.6650085081865116,-0.05134126126783067,-0.052261308652651356,0.09540359694575205,-0.12148306927450664,-0.16288812104003525,-0.03890405060727678,0.20228765545151375,-0.0847634802147453,-0.0216231889772381,-0.028694283757418358],[-0.07597559391987739,-0.06493160750787295,-0.07837975068699486,-0.48853261675989657,-0.10972054884221122,-0.11533244151444912,0.10728934422431902,0.520084825249811,-0.0760771865429611,0.07847491846889296,-0.08336201584965734,-0.18126426271611737,0.037843090941963746,0.055694247442399834,-0.0999043480309421,-0.08841266433527857,-0.07366160263341533,-0.02541422933338108,-0.0262613656772398,-0.23915245688142417,-0.0908933347838291,-0.08807159504247647,-0.8167594453618371,0.06452220369889729,0.06894012139031302,0.0479731479247943,0.11832670869753524,-0.03185799292201619,-0.06519311599177982,0.04295873873082427,-0.05945573611174005,-0.13890692858145873,0.03175174938425122,-0.041039546565572155,-0.08438889979816844,-0.057023418559883056,-0.025102348773119638,-0.26238759372724646,0.1554733435726272,0.13759039906301157,-0.12278525190763925,0.016948309318967632,-0.07243234286461055,0.1119292767704985,0.10804355998457824,0.005264029668985945,0.5297895545182906,-0.015204968728423295,-0.04310263406963134,-0.110585247698707,0.03344530896788325,-0.08774244382964,-0.052990050349655725,0.5506184908670704,-0.1974663248906606,-0.019894573967589632,-0.026603065015381296,-0.07770926516529113,-0.04137280267156353,-0.08653426527521327,0.0983785939948212,-0.05322587273454543,-0.24219410970553418,-0.13465429413442195],[-0.11881070260014,-0.04735640821263532,-0.06602391135533428,-0.21358469053979262,-0.006079182059679577,-0.10309850951296448,0.023772122438418253,0.22305995086567024,-0.0885976347504032,-0.12881459589372574,0.025051049920635875,0.002423356484317528,0.08580997249216245,0.011749257191784318,0.026188547170869193,-0.04046973838562328,-0.03819554087872335,-0.037289740746427935,-0.08422881919661573,0.14294010728745563,-0.005665071307009218,-0.15572184559108876,-0.5443783464324536,-0.1258630403922022,-0.13768069163184077,-0.12675442719854227,0.02642569890821489,-0.06233689198993727,-0.02238646258228021,-0.0434264073820987,0.030715683396335555,-0.018320279487119187,-0.07833515562120416,-0.025938948369177976,-0.09676657209304257,0.036721202316704164,-0.03257910075618348,-0.10973772809269197,-0.18974428989811096,-0.08572346469732035,-0.016896776790801277,0.051924257339253446,-0.12259938166040736,-0.1250507085235568,-0.3212737103827722,-0.011796342210535578,0.7339562425915959,-0.0726168460665943,-0.07990131162966622,0.07117604768095119,0.022698977212394004,0.07635883658794393,0.08671098350006609,0.4569106783430223,-0.08257470104941897,-0.1339297013366361,0.06268063240694205,-0.08954671330031062,-0.09979271595028966,-0.14494135654202184,0.13055910326227735,-0.09712130364479513,-0.06634475763985694,0.3510418836453389],[0.0755966183118146,0.050550800202803226,-0.11144139941184598,0.3592633509451968,0.024898249436343983,-0.14349508572906017,0.04380606573925516,-0.47561284767114903,0.008767903979804065,-0.14532076279658585,-0.002952071056413866,0.11508546028525649,-0.029468403523716803,-0.023269501192288145,-0.08547589881390684,0.016997441652598835,0.08645624397053181,-0.1380085097190589,-0.023525834455274924,-0.0332183978883781,-0.10187582920787285,-0.23224028501173422,-0.6149656975882204,-0.11567199604383138,-0.2307315655950265,0.08015394252848815,-0.2237479342232769,-0.10302618794243275,-0.0032285524569396367,-0.06460243928292966,0.10106139329718984,0.06901724090114486,0.021532898305994357,0.022871715908782873,0.0032139498703369373,-0.06677021713462816,0.10075034241645575,-0.027771007949444336,-0.19444592788278703,-0.12038439185777024,0.339347820541199,0.00669747248676911,-0.04790191981349179,-0.28932268869853767,0.11544738234473245,-0.1028217554465063,0.08852296706845511,-0.03301418362418896,0.023404098213316554,-0.15025333903092486,-0.008761742894078979,-0.12760713958834535,-0.02042367869429085,0.7993710167854411,-0.09456577533090983,-0.011172204649821662,-0.0729556222388976,-0.09702351990683938,0.17100710509354058,-0.0009934548266442734,0.02949169637416765,-0.025263020342766625,-0.022938407870303153,-0.27313854640200663],[0.05557360839864095,-0.12073361626380183,-0.12787985256783713,-0.6318516891072058,0.07095371892587646,0.1363082377235963,-0.27850851587016856,-0.4341932181506955,-0.1047521119858942,-0.17318784737962228,0.06694832425847581,-0.2137496048149356,0.043411419337690105,-0.046758269069745416,0.005732291798261413,0.0517276415281528,0.05582634131453118,-0.1438447416664452,-0.027402415318904274,-0.24347367833267994,0.051362939896592366,0.24345521820361282,-0.5894163364963587,0.05807586963296323,-0.10828032759825038,-0.01323658843274134,0.04751175352439667,-0.032826548502872505,-0.057602590289057815,0.04344804480130868,-0.057977503822867336,0.04696137799450582,-0.028987882895288405,-0.11862743601118499,-0.14854898104408984,-0.027887399144458515,0.05302508907829472,0.04090198819705821,0.02828442128643796,-0.3721055271507026,-0.007916384034775105,0.016237078015411556,-0.09322792518234363,-0.11982120174582728,-0.030453275658680612,-0.06353728164174713,0.48867730564420564,-0.11852323337891797,-0.10396343451248354,-0.07406120437645203,0.061590959999532395,-0.12975843393582023,-0.11942978541029137,0.5454798048011297,0.10653806258934735,0.004933468567276737,0.03087324209194442,0.04063416928752104,-0.12009815855521716,0.11111492625911559,0.2098340832887117,-0.08641430234149035,-0.013741288786580225,-0.7372138847753839],[-0.11783147798908705,-0.15230176932502743,-0.21006923226803753,-0.6592253233613644,-0.10381458527219736,-0.30140125295077685,-0.40146611134751903,-0.5558220624267886,-0.0984610610935317,0.01356847082017446,-0.0728329705789363,-0.09259874366716296,-0.04735104899384334,-0.04394801396354715,-0.12474558181466697,-0.18388775689161374,-0.16812558929238267,-0.06346791366796196,-0.03254320422399486,-0.21286229109914487,-0.12094552545656259,-0.16109213704982217,-1.0371928363810679,-0.09055291387199714,-0.27433589630779226,-0.07126396504469173,-0.07373445136475694,-0.130207228827133,0.0004817393651895278,-0.038751633065622466,-0.1724778381550224,-0.06872937948548916,-0.06937885837493087,-0.16397941470151975,-0.19998350199220938,-0.16774506458847993,-0.12476601707122896,-0.22790340587714705,-0.023476623208582674,-0.12013307180997916,0.1056600681278393,-0.1177633108513909,0.003570876382054772,-0.1475872175613796,0.11964512774979043,-0.23251909495868117,-0.04334720725892447,-0.21677796920557915,-0.13010538911282524,-0.09292241228947841,0.017288667504632538,-0.11554857374771771,-0.03138007523831769,0.2195730530685363,-0.06046244937302986,-0.16981490525831566,-0.12277363898405952,0.04260852075016525,-0.05478952346854648,-0.03477562216083411,-0.720895690504086,-0.008955786197885627,-0.08962992192120019,-0.4019865511611157],[-0.09351895169153608,-0.1103627349583703,0.08658114073425235,-0.04023069933216084,-0.0215079699070416,0.12213784868401473,0.09080052769191359,-0.2952171073607854,-0.03843225119244202,-0.08842139820040465,0.0716550972433035,0.07224331897410821,-0.12891145427545267,-0.10473017091185927,-0.0697560397733311,-0.1641280047159574,-0.08877083077934432,-0.10567830667274436,0.02991052667814021,-0.15189951875930752,-0.017028456240722117,-0.28698630605817466,0.4350997960883724,0.015868541871449184,-0.33939239666745113,-0.044240995580080246,-0.26220164432937976,0.078657078409591,0.10607086354282967,0.00984275825364056,-0.18027777630723282,0.0413952681118428,-0.12699092128689327,-0.05858205754700825,0.04621938827947311,0.11448824065809522,-0.015550167088496348,-0.6676299912660754,-0.011826001337743083,-0.11566748855184185,0.020330831849569977,-0.03222134905956634,-0.07952282074102819,0.0959884271743184,-0.8357733802237161,-0.06770764382058006,-0.044612930424387576,0.15771327701402799,-0.05452427445040728,-0.28952441693393977,0.10418143956513512,-0.1079767475034839,0.0008089260665125823,0.034430020007256444,-0.18212642073512375,-0.00970440006518235,-0.0744152540030331,0.05881724789895406,-0.15151091967756689,-0.000026183451477755714,-0.3875296075922784,-0.07123213404085335,0.19327561104089272,0.015900252746707],[0.032975902869563985,-0.04677418492016468,0.04194228956913106,-0.051409512063256696,-0.1298769018434429,-0.1453357598025878,-0.21035421447094793,-0.6314260741743327,-0.03669947960534764,-0.0770011978664217,0.02449881133891503,-0.14220184007884354,-0.016534428446906734,0.009163367229466712,-0.039057048141846046,-0.0037183158465979244,-0.0742447042794294,-0.04071349340721627,-0.09765888990496756,-0.10063315628583151,-0.09457476278840857,-0.22970793279065277,0.03481212830261623,-0.06707017739973133,-0.1333239754542617,0.03578723723045894,-0.059642528160001235,0.0036001777295227933,0.009571147475274603,-0.11133203388326425,-0.1402112139706367,0.04000615778074002,-0.04429706835921322,-0.049675396525663426,0.061890716719851434,0.00871312603004127,-0.15511302562292767,-0.11015410077132838,-0.10567078554324821,-0.1072094880542345,-0.5749216398925793,-0.011348606840543157,-0.06733643022372504,-0.060381941541968846,-0.16636002246669,-0.22938123612838351,0.029437486370747928,-0.07347078547418275,-0.033782514941515185,-0.09130417846871847,0.04885016679857832,-0.002043736690087959,-0.016337768092672823,0.4193365627130445,-0.15002145963346353,-0.13807284885918086,-0.001506803899581205,-0.10910811967312795,-0.14552220177299557,-0.043212690598107534,-0.2623124003528176,-0.12210074212048819,0.011188710150619553,-0.07878442686250144],[0.02432866977157036,-0.0448817992412412,0.17292432205282712,-0.3548799747538099,-0.056439975217051117,0.10913140910515096,-0.14785844236387305,-0.4836895445973947,-0.14562909797705373,-0.11938889685150511,0.015305501077781988,-0.06815674079513673,-0.052195356499723754,0.07966383237224264,-0.1330239123356858,-0.0032709470673092577,-0.06517579992716831,-0.008989885762835806,-0.08930468931966352,-0.05801854825424695,-0.07633992440337824,-0.12237019963819466,-0.35028156825411316,-0.01942632098247095,-0.27014161688555444,0.04622003300460649,0.06240668329766263,-0.09526315169648886,0.07518039558916975,-0.1881644467921772,0.07408996007921394,0.02168270317663481,0.024041692718881017,0.03264321885446972,-0.026288619652381637,0.05852681898772215,0.09237389678199288,0.12929887507242865,-0.21120952758407774,-0.08997294584204485,-0.7318262588179552,0.018515653429206667,-0.01419983910512061,0.01858061731297127,0.03629113161160693,0.04094577118077584,0.8657760043104599,0.06088527455550083,0.022986020311496456,-0.12317157699281597,-0.014408826544723549,-0.09509940752032886,-0.06885685361088616,0.20502089453261832,-0.010005489943483556,-0.046361126949742607,0.03926100829918983,0.01294185524094242,0.0667135602334717,-0.011961070342700776,0.32990309160000053,0.13686602629228115,0.11151750818599505,0.24105583459902075],[-0.024920343123017566,-0.030160722358084913,-0.0009785617030838708,0.21549896594254125,-0.07627976440381586,-0.14983661484708527,-0.00742790461959637,0.42068598957729714,0.02279846830839846,-0.06721217156644714,0.05465928351358462,-0.042630124799206075,0.02395741605588105,-0.13202787299295388,-0.11281570608778328,-0.06605450015886069,-0.008638423078631266,-0.07728494250558982,-0.015040270684127605,0.32948004067107184,0.04710702442567321,0.06372455383947392,-0.18141269803311294,-0.10428490044168084,0.23682559184299043,0.03509026188603903,0.011887915151107023,-0.10709073256041579,0.021298259432374633,0.05437419747964742,-0.07711593813579112,0.03946931085649945,-0.11277038113358061,0.040973204618206714,-0.016312763320586066,-0.07464141868930414,0.022317651624025416,-0.18262404951546718,-0.054644996345501504,-0.006820948278514706,0.5276091691822721,-0.1065521164131352,0.0721285803992575,-0.2498047347792145,-0.18382776135258994,-0.09752046292677911,0.524191462903345,-0.06417306383775266,-0.006395119180927947,-0.10441221219287043,-0.0663613546958924,-0.12754376843737414,-0.017368344248437365,0.4375673976053123,-0.032858666460411926,-0.1335412636080544,-0.1309834517190228,-0.0016850488535447407,-0.12385539277941822,-0.055742396045978596,0.10276649494843496,-0.3472053755480407,-0.3094006855771773,0.09112997945866286],[0.06488563632460981,-0.10806135283155383,0.03545549350513097,0.09164209598628989,0.08076518958896481,-0.08023987174106831,0.03258628350689442,0.4542889605509076,-0.060459139968270514,-0.17595064919107972,-0.02120376958431701,-0.01074972952780256,-0.033156904733870035,0.043419230258342476,0.004614845781294265,0.08193084804669563,-0.008476563338428873,-0.08856949042104098,-0.045690292947378176,-0.13710059432067193,-0.1005699312128552,-0.5721118160686443,0.6869008419162098,0.0040065588931039306,-0.030007998157476838,-0.1082717939040354,-0.15475800532201145,-0.05868410561856666,-0.1000875573851694,-0.09106424776167617,-0.10640669552858589,0.022380144680883642,0.009135028051638561,-0.01669032167776131,-0.1095055129611471,-0.11673240396654788,-0.05243837588681958,-0.004061013094853143,-0.10740744883867004,-0.16735824670664698,0.14762839212347076,-0.09148423357957008,-0.14145552700980646,-0.3554832167175956,0.17490768759739764,-0.06631052930806534,-0.11404320785892376,-0.14169640391154023,-0.11196286047393554,0.10479289721665784,-0.10600621524149634,-0.07374966697627368,-0.0394055153120956,1.0305779302520743,-0.06175663540033368,-0.03733703750613403,-0.08515317311583756,0.02121627345431156,-0.08412892052968703,-0.04492614979328865,0.12878436697109433,-0.026595740301055663,-0.10484495745981016,-0.3512929309791973],[0.004559346200600322,-0.053575141948534306,-0.21000338660234885,-0.08800688924510217,-0.12472864884046618,-0.15251370288965382,0.20817551318860406,-0.17493864938621723,-0.14957805618129338,-0.07746382597160581,0.10166231762694063,0.2068524279499288,-0.005789022501089884,-0.08788952055094745,-0.07073100737673417,-0.05649096804191485,0.026914785949332255,-0.13550170303565395,-0.06319663130892428,-0.162175923762271,0.03357917758191691,-0.11596546675971069,0.10191535494710334,-0.01819174014706266,-0.019628852441343575,-0.04333324701306531,-0.13148618498474748,-0.014956084552427609,0.04708494262325357,0.09837375349703964,0.061844421253454775,-0.033862108698749685,-0.04352929117724441,0.031512244607592534,-0.06135886447825793,-0.0030752832905266243,0.06988481837571321,-0.3033322989402244,-0.18942089828001782,0.1935481856537507,-0.3329733981225875,-0.04537040462056125,-0.06595254356974446,0.24734016793460226,-0.1730590527082047,0.09046449510239703,0.648681339958847,0.02818274544412146,0.031218343912364017,0.05242614581195938,0.06320622812258542,-0.1520845429229977,0.04603033196757429,0.3091125366569166,-0.04611238522644281,0.09245439091039502,0.016813324408754615,0.0482289160257505,-0.04667137378033823,0.06369152524995249,0.027258524873876568,-0.2256290829117523,-0.19264903056467986,-0.3234308938897928],[0.09053877594552052,-0.035804100246480904,-0.05847035193885095,-0.23180437240605262,-0.06723285472251246,-0.11819156079322778,-0.24816872372101043,0.12404311292563362,0.07989342075598477,0.02604057703546656,-0.03042935204429575,-0.09611751719442031,-0.05965919757856479,0.08442750593371598,-0.10389469397248766,-0.07276808475554876,-0.12248986968143312,0.030846049753826297,-0.1378354752076701,-0.4854853978596803,-0.09699810447588132,-0.11803119560801573,-0.6400169053832181,-0.1589363024118174,-0.40488896046190687,-0.03286985260050379,-0.04709116708173126,-0.06297704535234322,-0.0935897574106669,-0.22215455210614793,-0.13648397291207787,-0.07658962923161028,-0.07666135996850382,0.06763272132338169,-0.10063342137622058,-0.09127685539143493,-0.1342915239026048,-0.33430507727818265,0.16638077954850028,0.16271688394167053,-0.25718133628665374,-0.09875094207085726,-0.04953206973431903,-0.10529671659209304,0.0459113586747824,0.06622828049430335,-0.02090393100978934,-0.10462118155552495,0.04383677772762335,0.10202890409651184,0.02496120051758432,-0.1128491907073378,-0.09561798695630044,0.7748664802317743,-0.1475210801303595,-0.034763347685874885,-0.07161459564559428,0.06510632297900353,-0.14880842037780787,0.017897619449447805,-0.03997405058034232,-0.18966220548151297,-0.010044085590624592,-0.24478963947492144],[-0.019675107224501793,-0.17367434498790138,0.015582580034877573,-0.5114292128048873,-0.1296058419760111,-0.2805896968411975,-0.3216150030881489,-0.807921643416656,-0.08737561281713865,-0.017170452802054068,-0.11093474777388714,-0.1880269331005132,-0.1998009186840415,-0.13106014694148335,-0.07137697234341697,-0.12830784208760734,-0.019648877611054685,-0.24052821168971314,0.019972015273704777,-0.5597837728498777,0.000911076085642452,-0.4025484131519804,-0.7670421241826118,-0.06681634983485878,-0.20773261682847047,-0.02909396951206379,-0.28703003197271443,-0.0900684690592307,-0.17366867158852237,0.0362158586909513,-0.09261275611924603,0.006542798012153267,-0.11158494872945092,-0.09915127810577329,-0.15350859180062545,-0.09028025851636562,-0.147165668485778,-0.25338130581044804,-0.018792943531403997,-0.2407193235104002,-0.14873213279832423,-0.028245041716375173,-0.04053734230929557,-0.15887688168299705,-0.10461041349985747,-0.1469028257392621,0.05480962392802525,-0.10494653166812953,-0.10485834898730245,-0.052411947780575514,-0.03657537283859736,0.01777481864984776,-0.16367331101446944,0.22807856812893681,-0.12582141221280604,-0.16496616938024375,0.028922336710942204,-0.03815022722164466,-0.07805930343203298,-0.001016392889731413,-0.38223808009403476,-0.132487830667929,-0.15126244580583437,-0.41681502669365905],[-0.02663827372461464,-0.06005792464488714,-0.16869993457333193,0.08435601103802835,-0.008302195402826383,0.00911799278407385,0.15246960608117022,-0.22199626475082024,-0.04507325573271459,-0.0012540248552967315,-0.06600063164364596,0.26692625368732253,0.07076804391826803,-0.07132827117281874,0.12630238228076088,0.10467096329450769,-0.18252665462509962,0.1755974605692067,-0.010725806097289622,-0.13394734560646945,-0.05734370146401051,0.1887478776487845,-0.34572271812161803,-0.09233061947301092,-0.07460900271352795,-0.0922097472658566,0.09527063002289198,-0.0015461940881701729,-0.08632499810116347,-0.13890526221016225,-0.013492806729120097,-0.12488291211911674,-0.09586635651553155,-0.0457517851332223,-0.13304761322086586,-0.09835907102939723,0.04832205605420497,-0.09352565769083312,0.06767498280056862,-0.03207981141940294,-0.6002530506133483,0.009732554926072194,-0.10056629038449283,0.1583528399346438,0.09069248259451443,0.007092041280843612,0.016383260036101157,0.08191735997155494,-0.10365300896410574,-0.022968834898179843,-0.06555205184674949,-0.04671132955570689,-0.034366845420674794,0.03204699716592743,0.19176246469969058,-0.0032395692788058286,0.09357213098340242,0.047082832409937714,-0.2507769342032159,-0.016689349896929447,-0.40282710866169236,-0.11853459158383256,0.23865572801964233,-0.2409825765238618],[0.006200497496637278,-0.16195365996611272,-0.07633703367790799,-0.11083349513593427,-0.022322232239242897,-0.171202583470048,-0.1725159635552928,-0.7106543206775726,-0.007034397097273639,-0.19269055929355164,-0.10412952772140924,-0.16399889605308965,0.021160071890327998,-0.15625874781808485,-0.03494673128604824,-0.006187982166826553,-0.10858022791275294,-0.08613652484520538,-0.1692500807197512,-0.30483417628217174,-0.1522903221876472,-0.10136952515541812,-0.4863824092945573,-0.2073572299396115,-0.1044128103164109,0.022933389775027298,0.06012660271582659,-0.14244587743249185,-0.15269792304968852,-0.09224300420562725,0.021031333663411637,-0.16144250265013135,-0.057496987187384045,0.027119906755023914,0.000231808117387524,-0.08447744343772477,-0.12648540389781143,-0.16113365366915022,-0.004157366415781082,-0.08167963852392728,-0.36484730680045896,-0.06340781625613123,-0.0989298321173093,0.0349946467791287,-0.030834170990161162,-0.14459719388067735,-0.12726004577605837,-0.22504547670530117,-0.10840148541886016,0.012580686617072552,-0.10694062810111767,-0.06568579383966636,-0.016074121414433082,0.4973644679586573,-0.21222203963994868,-0.12001322814415667,-0.16151056137772815,-0.17534740273413088,-0.08135146075674758,-0.03362882960193727,-0.7256743284105736,-0.24039270936542625,-0.17723153818376106,-0.08331984805822937],[0.03327133276669068,0.013868456452691186,-0.024279193243544755,-0.25489903524830393,0.00020238246185910798,0.016557927909756673,-0.11954505683347655,0.2710736504314636,0.09210610263762904,0.037321595898562834,0.008890029322606116,0.02135607006180024,-0.12234532172527787,0.10688174456489682,0.10085438086869332,-0.050944472271420266,-0.1366549668754317,-0.11663123104437383,-0.05277228772289771,-0.41623297644098994,0.06480695814993917,-0.5032235824809961,-0.25552048235933483,-0.0009902581843527069,-0.186128143703613,-0.07858884470737278,-0.0264241334937054,-0.08712020921509123,-0.021417841874372984,-0.04323397268139451,0.02201240964095931,0.06306772073776457,-0.048122024194664444,0.019661019613825385,-0.08454973382565648,0.05933925295772706,-0.053639422961923,-0.14523944619271345,-0.31756556500250205,0.05173516447213336,-0.8852013533263013,-0.10970487832628524,-0.0622546780601852,0.29178063768102813,-0.01747656073315055,-0.06438702554195509,0.30200736736455014,-0.06515741029974803,-0.1133767529031237,-0.09612523129746844,0.01347164080762115,-0.010550942873353897,-0.05265127399632743,0.8144589763672827,-0.1338804847041167,-0.07252774677964004,-0.020837342870947215,0.012725991156566424,-0.022181990107552983,-0.08211065065765628,0.1731909618328797,-0.18967836286838713,-0.14512821623894778,0.10548629913626129],[0.084236219019235,-0.12258348297019143,-0.1421856001150767,-0.09100338554241134,-0.09993071442538792,-0.17306377318733315,0.09670837927664191,0.27599976652275116,0.14539663592891366,-0.06014848067743191,0.0015777039043176001,-0.11993069187407383,-0.13665844854048004,0.023970607675086165,0.03983600912293218,-0.08474883509303345,0.04818706239250532,0.04633817579789192,0.06416149375573862,0.15348694969846813,0.036232877567972034,0.16784654068128643,0.24138259894500927,-0.08592984695763743,-0.2591347584807485,-0.07367971067684323,0.07204127087190743,-0.10099225107389977,-0.041340063938986496,0.160419437751773,-0.13015291464112294,0.06815126816888596,0.09121791755822281,-0.0000877065878329229,-0.09390828319665218,0.029679161209969464,0.022870085534727254,0.28949286359175813,-0.21040329375313488,0.13969999989396134,-0.8375032409262761,-0.04828315890216839,-0.04504379671661715,-0.29837571301985555,-0.08803070341655848,0.06972497480121922,0.5196813766317665,-0.034396380820271584,0.030970847878984183,-0.2036584454895673,-0.001546331262927668,-0.09346288163966963,-0.13030817219835814,0.6187998032535977,0.024005051078774403,-0.10577743701795016,-0.0024441773970356293,-0.006045217992430739,0.06519970261461054,0.12258416383111467,-0.18455424765205772,-0.3282931960213565,0.016607862282356726,0.04540601427583618],[0.015052637986145555,-0.12629583033048708,0.020529080855454546,-0.17547726022432084,-0.1273860635073763,-0.07354029647635575,0.11204422736370515,-0.1894376132979565,-0.013508797601466914,-0.030970886959990906,-0.11486327749325273,0.0973466457772048,-0.20134367221106558,0.009345379626204207,-0.11895225187246505,-0.02464377823707574,0.04655129673519069,0.051512055098768196,-0.04104253517493231,-0.47292739601715195,-0.013247556222982484,0.09992488475815126,-0.6623386383451957,0.00007211304386503596,0.032250484818926214,0.07783967393601648,0.06210933253729433,0.044235004756544564,-0.07755142515453413,-0.000985727055152286,0.13606631171241376,-0.11987784161172002,0.08252093854334024,-0.03389469940622047,-0.13356160770909892,-0.0860203566789823,0.10317575003958063,-0.30722678132132414,0.1436421728591133,-0.2075382347040477,-0.8299955827753996,-0.0014841548201418766,-0.06230507564201826,0.14737344564370966,-0.09308125911333162,-0.17927870825713632,0.41043099005760375,-0.015937717387940708,0.04117338173485673,-0.17155166613274775,-0.0015012458816092357,-0.0701113885226401,-0.08100393408242126,0.5378067257343705,0.03819045989589123,0.04005022560434718,-0.04303693721584211,0.09562030412727308,0.01711490765761936,-0.0824138351792539,0.16433576036248276,-0.032367368468571855,-0.13895614232300574,-0.1589329029192052],[-0.10803167203736418,0.005398446671035607,-0.06973640885512691,-0.6417238476511672,-0.13988071532264348,0.15547813466709448,-0.2872247363607797,0.17294293952201145,0.03924505091521969,0.01645846572900526,-0.10759755728824552,-0.04857394618813195,-0.150594245625883,-0.0304609731438752,-0.16151950758639386,-0.05864900596273751,0.05381970867189451,-0.010740808283794059,0.010129062023980421,-0.05666174902607348,0.04267769442323674,-0.280175554229965,-0.23092451438037775,-0.08921334568895407,-0.13417976770311751,0.010508139149528039,0.03944914094475885,0.03467422881909872,-0.06329889668411143,-0.12112761747246989,-0.08849344589611603,0.06853934909542957,-0.12120735761298129,0.04489160775220893,0.14915510423258735,-0.0963868365988075,-0.052834582229392704,-0.04111614794194111,0.18450439845613445,-0.5814526301074278,0.06942192752722076,-0.09837683797690482,0.03580608863634619,-0.16466535159139378,0.04653430733504267,-0.0445676322460507,0.4702497481066792,-0.22692473194430046,-0.034286880567312626,-0.08507013672895715,-0.05511407030191685,-0.043837592579792785,-0.022596392474908043,0.575391266344712,-0.07887559445493429,-0.12441711698959661,-0.17574615381769296,-0.03605450959632156,0.1416976638203294,-0.11462706207452063,0.03929440422891828,0.005926236839563804,-0.11579613749666856,-0.2732199060972666],[-0.01966489524120478,0.0465752998536901,0.0027475927915758796,0.1803222973213996,0.08371768144527433,0.009232964233962743,-0.3671763172346024,-0.030349526288726766,-0.025359632497620386,-0.021730290586110434,0.07475614327712637,0.003980706044527366,0.05869996556228782,-0.06883606804626391,0.03350596472805314,-0.014247121046483563,-0.16316015015201277,0.10009861729309717,0.045948206978015625,0.21463085313791144,0.03471798797638563,-0.4967561458480014,-0.4979714096450058,-0.02438129615663717,0.07401134860532346,-0.10877351362835458,-0.1709290355636828,0.06591226875740801,-0.01916350633758396,-0.21262006638773825,0.016158414296403672,0.0472957347748098,-0.01347677102258094,-0.07594087069783408,-0.19748690047211706,-0.005724571881809682,-0.01389485699171894,-0.41303063239704946,-0.25452639135511596,0.08497100796656162,0.9340778153268271,0.0626825285897239,0.010518924877762584,-0.21152016465516058,-0.19781734405229442,0.09706016142746539,0.4701831858390558,0.08359771780344215,-0.014715265924398258,0.021266637037459724,0.06965699279556077,-0.14831237196520922,0.08732708689625639,0.5232829263269368,0.03144670560257275,0.04174433633858935,-0.06432355466491609,-0.060082183099545175,-0.0628385163046806,-0.11093621944007122,0.20643477794421247,0.10942777390271362,-0.13759639645875626,0.017807035696811305],[-0.13152922723556418,-0.07273612400764877,-0.08362272700766347,-0.43041496389976225,0.005125818883995801,-0.22401615589714313,-0.24712290209043114,-0.7247600991932146,-0.16730687633418564,-0.033436854755900226,-0.07727962460105542,-0.06519680731932345,-0.11011528678082633,-0.08699181279145332,-0.10447347958235517,-0.10848595490307814,0.0317431948991191,-0.1010166758862351,-0.17264468184310813,-0.819807677549078,0.0531237823606791,-0.13465380230369045,-0.7585354434961593,-0.14665062142144136,-0.5905521260759717,-0.07060084651585989,-0.3229749966568593,-0.07523373408740303,-0.04676671052232363,-0.1313806032554063,-0.0684405919901023,-0.1695265885135122,-0.1626123428070106,-0.014886237731284327,-0.043963893797314,-0.04695649688191245,-0.06670561741077023,-0.06627743765878708,-0.1948757243302304,-0.23001410994473703,-0.03415056083400597,0.022002718405765252,0.006744072298540192,-0.294306141770246,-0.15647146231820083,-0.2370837387160265,-0.09386030638870295,-0.15890817177779945,-0.17128516851170605,-0.013276222280814142,-0.128144618223641,-0.08867836337444551,-0.15383126237060277,0.26900828685885114,-0.015608824217617556,0.013965508727792838,-0.02772000468489166,-0.138212294813685,0.010446463897089982,-0.04963669649668338,-0.9359139222549762,-0.14086761427431915,-0.0152855156267268,-0.6232168126638165],[-0.034464425999747444,0.08613592705475626,-0.1451316623741415,-0.03189572336505982,-0.13181908006939286,0.06896007249717638,0.041034366429165005,-0.08181450222900934,-0.09500290537312234,-0.018111874704869597,-0.008456199092473395,-0.22268473834949273,0.046520990779321425,-0.09300856781012348,0.009405621713328706,-0.13032686141551886,-0.1402460515264596,-0.03593711451989219,-0.027344257727346097,0.1904290602986301,0.026329891167131716,0.09211167773134102,0.2876325101027803,-0.020313282489524596,-0.17624742844056612,0.03293101788915248,0.1317906893216866,-0.05481455732484302,-0.1113887608004646,-0.10020208120558458,-0.16431161709263992,-0.1325752139002569,-0.11196367893677636,0.04646016125698272,0.004169621022868093,-0.13315370573782542,-0.06020850557895456,0.02422371549175985,-0.03950626407398455,0.2674232329905731,-0.16863909138444702,0.05856731234949301,-0.044679428732840795,0.16080121991391183,0.17522650792436967,0.022240678590476334,0.0344376413054885,0.0668686668015871,-0.04045146512516488,-0.09174432087516945,0.05207276002382195,0.07578801112084092,0.06754891014376337,0.016046580526977546,-0.25058984044393995,-0.1662576180783333,0.10728747732135407,0.015525017425437148,-0.12888979505305426,-0.13941536963023884,-0.0024788670528384754,-0.13614350114196877,0.041647749737746265,0.28454397098647594],[0.021768882175844755,-0.13645417045541713,0.024187148516047585,-0.28610639835840235,-0.1653283827001887,